{"learner":{"attributes":{"scikit_learn":"{\"_estimator_type\": \"classifier\"}"},"feature_names":["HRV_MeanNN","HRV_SDNN","HRV_RMSSD","HRV_SDSD","HRV_CVNN","HRV_CVSD","HRV_MedianNN","HRV_MadNN","HRV_MCVNN","HRV_IQRNN","HRV_SDRMSSD","HRV_Prc20NN","HRV_Prc80NN","HRV_pNN50","HRV_pNN20","HRV_MinNN","HRV_MaxNN","HRV_HTI","HRV_TINN","HRV_HF","HRV_VHF","HRV_TP","HRV_HFn","HRV_LnHF","HRV_SD1","HRV_SD2","HRV_SD1SD2","HRV_S","HRV_CSI","HRV_CVI","HRV_CSI_Modified","HRV_PIP","HRV_IALS","HRV_PSS","HRV_PAS","HRV_GI","HRV_SI","HRV_AI","HRV_PI","HRV_C1d","HRV_C1a","HRV_SD1d","HRV_SD1a","HRV_C2d","HRV_C2a","HRV_SD2d","HRV_SD2a","HRV_Cd","HRV_Ca","HRV_SDNNd","HRV_SDNNa","HRV_DFA_alpha1","HRV_MFDFA_alpha1_Width","HRV_MFDFA_alpha1_Peak","HRV_MFDFA_alpha1_Mean","HRV_MFDFA_alpha1_Max","HRV_MFDFA_alpha1_Delta","HRV_MFDFA_alpha1_Asymmetry","HRV_MFDFA_alpha1_Fluctuation","HRV_MFDFA_alpha1_Increment","HRV_ApEn","HRV_SampEn","HRV_ShanEn","HRV_FuzzyEn","HRV_MSEn","HRV_CMSEn","HRV_RCMSEn","HRV_CD","HRV_HFD","HRV_KFD","HRV_LZC","ECG_Rate_Mean","SCR_Peaks_N","SCR_Peaks_Amplitude_Mean","EDA_Tonic_SD"],"feature_types":["float","float","float","float","float","float","float","float","float","float","float","float","float","float","float","float","float","float","float","float","float","float","float","float","float","float","float","float","float","float","float","float","float","float","float","float","float","float","float","float","float","float","float","float","float","float","float","float","float","float","float","float","float","float","float","float","float","float","float","float","float","float","float","float","float","float","float","float","float","float","float","float","float","float","float"],"gradient_booster":{"model":{"cats":{"enc":[],"feature_segments":[],"sorted_idx":[]},"gbtree_model_param":{"num_parallel_tree":"1","num_trees":"100"},"iteration_indptr":[0,1,2,3,4,5,6,7,8,9,10,11,12,13,14,15,16,17,18,19,20,21,22,23,24,25,26,27,28,29,30,31,32,33,34,35,36,37,38,39,40,41,42,43,44,45,46,47,48,49,50,51,52,53,54,55,56,57,58,59,60,61,62,63,64,65,66,67,68,69,70,71,72,73,74,75,76,77,78,79,80,81,82,83,84,85,86,87,88,89,90,91,92,93,94,95,96,97,98,99,100],"tree_info":[0,0,0,0,0,0,0,0,0,0,0,0,0,0,0,0,0,0,0,0,0,0,0,0,0,0,0,0,0,0,0,0,0,0,0,0,0,0,0,0,0,0,0,0,0,0,0,0,0,0,0,0,0,0,0,0,0,0,0,0,0,0,0,0,0,0,0,0,0,0,0,0,0,0,0,0,0,0,0,0,0,0,0,0,0,0,0,0,0,0,0,0,0,0,0,0,0,0,0,0],"trees":[{"base_weights":[-9.018725E-3,2.2294276E0,-1.2480851E0,-1.3866608E0,2.3877382E0,-1.4634044E0,1.1589526E0,-3.648199E-2,-1.4440173E-1,2.6706069E0,1.000911E0,1.4259182E0,-1.4820527E0,4.9405512E-1,2.420378E0,2.6845753E-1,-3.648199E-2,-2.6021585E-2,2.008142E-1,1.8889718E-1,1.008835E-2,-1.4985988E-1,-3.930418E-2,2.0318745E-1,-3.504254E-2,5.7680666E-2,2.5680685E-1],"categories":[],"categories_nodes":[],"categories_segments":[],"categories_sizes":[],"default_left":[0,0,0,0,0,0,0,0,0,0,0,0,0,0,0,0,0,0,0,0,0,0,0,0,0,0,0],"id":0,"left_children":[1,3,5,7,9,11,13,-1,-1,15,17,19,21,23,25,-1,-1,-1,-1,-1,-1,-1,-1,-1,-1,-1,-1],"loss_changes":[2.7084346E3,2.0249487E2,3.274709E2,3.656006E-1,1.2823962E2,3.322412E1,4.2559395E1,0E0,0E0,1.2706177E1,7.436833E1,2.3940096E0,9.756958E0,4.670879E1,3.3517761E0,0E0,0E0,0E0,0E0,0E0,0E0,0E0,0E0,0E0,0E0,0E0,0E0],"parents":[2147483647,0,0,1,1,2,2,3,3,4,4,5,5,6,6,9,9,10,10,11,11,12,12,13,13,14,14],"right_children":[2,4,6,8,10,12,14,-1,-1,16,18,20,22,24,26,-1,-1,-1,-1,-1,-1,-1,-1,-1,-1,-1,-1],"split_conditions":[-3.958336E-1,-4.9521902E-1,-1.4768547E-1,-1.4174677E0,-5.900251E-1,-1.4345249E0,-1.2453084E-1,-3.648199E-2,-1.4440173E-1,2.2024633E-1,-1.3772638E-1,-2.0648369E-1,1.8385668E0,-6.530895E-1,-1.3759923E0,2.6845753E-1,-3.648199E-2,-2.6021585E-2,2.008142E-1,1.8889718E-1,1.008835E-2,-1.4985988E-1,-3.930418E-2,2.0318745E-1,-3.504254E-2,5.7680666E-2,2.5680685E-1],"split_indices":[15,73,73,0,6,41,71,0,0,12,73,0,16,28,35,0,0,0,0,0,0,0,0,0,0,0,0],"split_type":[0,0,0,0,0,0,0,0,0,0,0,0,0,0,0,0,0,0,0,0,0,0,0,0,0,0,0],"sum_hessian":[9.745076E2,3.469403E2,6.275673E2,1.4226389E1,3.3271393E2,5.763982E2,5.116911E1,1.1472894E0,1.30791E1,2.7557892E2,5.7135014E1,3.2124104E0,5.731858E2,3.4418682E1,1.6750425E1,2.7443164E2,1.1472894E0,2.5699284E1,3.143573E1,2.065121E0,1.1472894E0,5.6423694E2,8.948857E0,1.1702353E1,2.2716331E1,1.6062052E0,1.514422E1],"tree_param":{"num_deleted":"0","num_feature":"75","num_nodes":"27","size_leaf_vector":"1"}},{"base_weights":[6.001732E-3,1.879948E0,-1.2279185E0,-1.2867167E0,2.0288534E0,-1.3999556E0,6.493991E-1,-1.3909028E-1,1.4490502E-2,2.2183049E0,7.82001E-1,1.4589965E-1,-1.4140571E0,-1.2533019E0,1.1815281E0,2.2413631E-1,-2.3866098E-3,-5.4214187E-2,1.9129542E-1,-2.769399E-2,-1.4282726E-1,-1.4070138E-1,4.091665E-3,1.5805507E-1,-6.890473E-2],"categories":[],"categories_nodes":[],"categories_segments":[],"categories_sizes":[],"default_left":[0,0,0,0,0,0,0,0,0,0,0,0,0,0,0,0,0,0,0,0,0,0,0,0,0],"id":1,"left_children":[1,3,5,7,9,11,13,-1,-1,15,17,-1,19,21,23,-1,-1,-1,-1,-1,-1,-1,-1,-1,-1],"loss_changes":[2.2401724E3,1.8398376E2,1.895752E2,2.869444E0,8.5136475E1,2.3649902E1,5.182329E1,0E0,0E0,1.6530762E1,7.599304E1,0E0,8.225342E0,2.3158817E0,3.0474869E1,0E0,0E0,0E0,0E0,0E0,0E0,0E0,0E0,0E0,0E0],"parents":[2147483647,0,0,1,1,2,2,3,3,4,4,5,5,6,6,9,9,10,10,12,12,13,13,14,14],"right_children":[2,4,6,8,10,12,14,-1,-1,16,18,-1,20,22,24,-1,-1,-1,-1,-1,-1,-1,-1,-1,-1],"split_conditions":[-2.8962737E-1,-4.9521902E-1,-1.3772638E-1,-1.5754874E-1,-4.021712E-1,-1.7244182E0,-6.93966E-1,-1.3909028E-1,1.4490502E-2,2.795943E-1,-1.552341E-1,1.4589965E-1,-1.7959604E0,8.5520566E-1,5.5493146E-1,2.2413631E-1,-2.3866098E-3,-5.4214187E-2,1.9129542E-1,-2.769399E-2,-1.4282726E-1,-1.4070138E-1,4.091665E-3,1.5805507E-1,-6.890473E-2],"split_indices":[15,73,73,74,6,2,64,0,0,12,73,0,33,0,30,0,0,0,0,0,0,0,0,0,0],"split_type":[0,0,0,0,0,0,0,0,0,0,0,0,0,0,0,0,0,0,0,0,0,0,0,0,0],"sum_hessian":[9.668086E2,3.836454E2,5.831632E2,1.6886705E1,3.667587E2,5.3444135E2,4.8721836E1,1.5767658E1,1.1190468E0,3.177061E2,4.90526E1,2.120231E0,5.323211E2,1.0351904E1,3.8369934E1,3.1447244E2,3.2336397E0,2.2836176E1,2.6216425E1,6.8254514E0,5.2549567E2,9.175048E0,1.176856E0,3.1751823E1,6.6181097E0],"tree_param":{"num_deleted":"0","num_feature":"75","num_nodes":"25","size_leaf_vector":"1"}},{"base_weights":[2.1178504E-2,1.7064306E0,-1.1173149E0,-1.1840508E0,1.8102312E0,-1.3287889E0,8.5011905E-1,1.5295987E-2,-1.3113342E-1,1.9844444E0,9.237825E-1,1.1901074E-1,-1.3426977E0,-8.927783E-1,1.2918806E0,2.0000505E-1,1.12018725E-2,-9.999005E-3,1.5662096E-1,-6.1258715E-2,-1.3666205E-1,6.721883E-2,-1.2518255E-1,1.5224645E-1,-9.764104E-2],"categories":[],"categories_nodes":[],"categories_segments":[],"categories_sizes":[],"default_left":[0,0,0,0,0,0,0,0,0,0,0,0,0,0,0,0,0,0,0,0,0,0,0,0,0],"id":2,"left_children":[1,3,5,7,9,11,13,-1,-1,15,17,-1,19,21,23,-1,-1,-1,-1,-1,-1,-1,-1,-1,-1],"loss_changes":[1.8380726E3,1.1803088E2,2.3901733E2,2.5821304E0,5.580896E1,1.9699158E1,4.4348972E1,0E0,0E0,8.866089E0,4.1708557E1,0E0,8.145691E0,7.5481577E0,2.510997E1,0E0,0E0,0E0,0E0,0E0,0E0,0E0,0E0,0E0,0E0],"parents":[2147483647,0,0,1,1,2,2,3,3,4,4,5,5,6,6,9,9,10,10,12,12,13,13,14,14],"right_children":[2,4,6,8,10,12,14,-1,-1,16,18,-1,20,22,24,-1,-1,-1,-1,-1,-1,-1,-1,-1,-1],"split_conditions":[-3.958336E-1,-4.9521902E-1,-1.3772638E-1,-1.4857575E-1,-5.900251E-1,-1.6188227E0,-6.93966E-1,1.5295987E-2,-1.3113342E-1,-4.7330374E-1,-1.3772638E-1,1.1901074E-1,-2.3802474E-1,-1.1814619E0,1.0950177E0,2.0000505E-1,1.12018725E-2,-9.999005E-3,1.5662096E-1,-6.1258715E-2,-1.3666205E-1,6.721883E-2,-1.2518255E-1,1.5224645E-1,-9.764104E-2],"split_indices":[15,73,73,60,6,2,64,0,0,0,73,0,15,64,30,0,0,0,0,0,0,0,0,0,0],"split_type":[0,0,0,0,0,0,0,0,0,0,0,0,0,0,0,0,0,0,0,0,0,0,0,0,0],"sum_hessian":[9.5601013E2,3.8524835E2,5.707618E2,1.2994351E1,3.72254E2,5.156596E2,5.5102196E1,1.1119951E0,1.1882356E1,3.1007626E2,6.2177734E1,2.3673463E0,5.1329224E2,1.0935812E1,4.4166386E1,3.0744562E2,2.6306462E0,2.429907E1,3.7878666E1,1.712914E1,4.961631E2,1.8780173E0,9.057795E0,4.0389397E1,3.776989E0],"tree_param":{"num_deleted":"0","num_feature":"75","num_nodes":"25","size_leaf_vector":"1"}},{"base_weights":[1.8217397E-3,1.4639103E0,-1.1109551E0,-1.1279327E0,1.5987718E0,-1.2810832E0,5.9694135E-1,-1.3077305E-1,8.0476195E-2,1.7423508E0,5.239332E-1,1.2635311E-1,-1.2954051E0,-8.185938E-1,1.0083705E0,1.802631E-1,1.06905185E-1,-6.711086E-2,1.6776706E-1,-3.135018E-2,-1.3085222E-1,8.665963E-2,-1.1893046E-1,3.406062E-2,1.7321683E-1],"categories":[],"categories_nodes":[],"categories_segments":[],"categories_sizes":[],"default_left":[0,0,0,0,0,0,0,0,0,0,0,0,0,0,0,0,0,0,0,0,0,0,0,0,0],"id":3,"left_children":[1,3,5,7,9,11,13,-1,-1,15,17,-1,19,21,23,-1,-1,-1,-1,-1,-1,-1,-1,-1,-1],"loss_changes":[1.5142614E3,1.4239789E2,1.5432416E2,8.169212E0,5.8154297E1,1.9163818E1,2.910507E1,0E0,0E0,1.1759216E1,6.52842E1,0E0,5.7557983E0,8.206813E0,1.7810555E1,0E0,0E0,0E0,0E0,0E0,0E0,0E0,0E0,0E0,0E0],"parents":[2147483647,0,0,1,1,2,2,3,3,4,4,5,5,6,6,9,9,10,10,12,12,13,13,14,14],"right_children":[2,4,6,8,10,12,14,-1,-1,16,18,-1,20,22,24,-1,-1,-1,-1,-1,-1,-1,-1,-1,-1],"split_conditions":[-2.8962737E-1,-4.9521902E-1,-1.3772638E-1,1.931794E-1,-3.0823776E-1,-1.6188227E0,-6.93966E-1,-1.3077305E-1,8.0476195E-2,-5.872907E-1,-1.3772638E-1,1.2635311E-1,-1.7959604E0,-1.1814619E0,7.073089E-2,1.802631E-1,1.06905185E-1,-6.711086E-2,1.6776706E-1,-3.135018E-2,-1.3085222E-1,8.665963E-2,-1.1893046E-1,3.406062E-2,1.7321683E-1],"split_indices":[15,73,73,74,6,2,64,0,0,15,73,0,33,64,5,0,0,0,0,0,0,0,0,0,0],"split_type":[0,0,0,0,0,0,0,0,0,0,0,0,0,0,0,0,0,0,0,0,0,0,0,0,0],"sum_hessian":[9.287204E2,4.0122775E2,5.274927E2,1.9480324E1,3.817474E2,4.7993497E2,4.755768E1,1.8118162E1,1.3621616E0,3.3621423E2,4.5533188E1,2.1979275E0,4.7773706E2,1.0487042E1,3.7070637E1,3.0704712E2,2.916712E1,2.2571714E1,2.2961475E1,6.6261816E0,4.7111087E2,1.6497754E0,8.837267E0,2.0046572E1,1.7024067E1],"tree_param":{"num_deleted":"0","num_feature":"75","num_nodes":"25","size_leaf_vector":"1"}},{"base_weights":[-2.6593179E-2,1.3162723E0,-1.0699376E0,1.6246564E0,4.63601E-1,-1.1398085E0,3.717828E-2,1.6387426E0,-8.634352E-2,-6.734735E-1,9.5208395E-1,1.3017343E-1,-1.1582288E0,1.8677364E-1,-4.5229563E-1,1.6821799E-1,7.748791E-2,-9.395381E-2,4.2918045E-2,4.6814024E-2,1.846024E-1,-1.181037E-1,3.1620502E-2,2.164387E-2,-1.18817165E-1],"categories":[],"categories_nodes":[],"categories_segments":[],"categories_sizes":[],"default_left":[0,0,0,0,0,0,0,0,0,0,0,0,0,0,0,0,0,0,0,0,0,0,0,0,0],"id":4,"left_children":[1,3,5,7,9,11,13,15,-1,17,19,-1,21,-1,23,-1,-1,-1,-1,-1,-1,-1,-1,-1,-1],"loss_changes":[1.243182E3,1.0126489E2,3.8667908E1,1.1386963E1,5.8655975E1,2.2632812E1,2.8272215E1,9.325989E0,0E0,9.78324E0,3.0922531E1,0E0,1.6069092E1,0E0,1.2538908E1,0E0,0E0,0E0,0E0,0E0,0E0,0E0,0E0,0E0,0E0],"parents":[2147483647,0,0,1,1,2,2,3,3,4,4,5,5,6,6,7,7,9,9,10,10,12,12,14,14],"right_children":[2,4,6,8,10,12,14,16,-1,18,20,-1,22,-1,24,-1,-1,-1,-1,-1,-1,-1,-1,-1,-1],"split_conditions":[-2.8962737E-1,-6.013357E-1,8.091928E-1,-3.2611412E-1,-4.1383517E-1,-1.7244182E0,-3.754797E-1,-5.5419254E-1,-8.634352E-2,7.455178E-1,9.6015906E-1,1.3017343E-1,2.1400394E0,1.8677364E-1,-3.582447E-2,1.6821799E-1,7.748791E-2,-9.395381E-2,4.2918045E-2,4.6814024E-2,1.846024E-1,-1.181037E-1,3.1620502E-2,2.164387E-2,-1.18817165E-1],"split_indices":[15,12,74,6,74,2,16,15,0,23,13,0,32,0,30,0,0,0,0,0,0,0,0,0,0],"split_type":[0,0,0,0,0,0,0,0,0,0,0,0,0,0,0,0,0,0,0,0,0,0,0,0,0],"sum_hessian":[8.853031E2,3.8697482E2,4.9832828E2,2.835268E2,1.0344804E2,4.6871765E2,2.9610632E1,2.822701E2,1.2566881E0,3.097252E1,7.247552E1,2.9880924E0,4.6572955E2,5.653099E0,2.3957535E1,2.6785443E2,1.4415657E1,2.507096E1,5.9015617E0,4.8009018E1,2.44665E1,4.5883084E2,6.8986936E0,1.2921172E1,1.1036362E1],"tree_param":{"num_deleted":"0","num_feature":"75","num_nodes":"25","size_leaf_vector":"1"}},{"base_weights":[-3.357838E-2,1.161125E0,-1.0850949E0,-1.2162479E0,1.2908565E0,-1.2137419E0,3.7740365E-1,-1.2551513E-1,-2.1976104E-2,1.5419455E0,6.5890294E-1,3.09494E-1,-1.2323138E0,-1.0792075E0,7.3848367E-1,9.8411396E-2,1.589583E-1,-3.079903E-2,1.19813696E-1,-9.228896E-2,1.4958663E-1,1.3115503E-2,-1.2436145E-1,-1.1677735E-1,-2.478235E-2,5.398422E-3,1.5576898E-1],"categories":[],"categories_nodes":[],"categories_segments":[],"categories_sizes":[],"default_left":[0,0,0,0,0,0,0,0,0,0,0,0,0,0,0,0,0,0,0,0,0,0,0,0,0,0,0],"id":5,"left_children":[1,3,5,7,9,11,13,-1,-1,15,17,19,21,23,25,-1,-1,-1,-1,-1,-1,-1,-1,-1,-1,-1,-1],"loss_changes":[1.0666431E3,1.2416254E2,8.542108E1,5.4148483E-1,5.886902E1,1.2130066E1,2.0401299E1,0E0,0E0,5.5931396E0,5.723032E1,9.863184E0,6.48822E0,2.8571415E-1,1.699805E1,0E0,0E0,0E0,0E0,0E0,0E0,0E0,0E0,0E0,0E0,0E0,0E0],"parents":[2147483647,0,0,1,1,2,2,3,3,4,4,5,5,6,6,9,9,10,10,11,11,12,12,13,13,14,14],"right_children":[2,4,6,8,10,12,14,-1,-1,16,18,20,22,24,26,-1,-1,-1,-1,-1,-1,-1,-1,-1,-1,-1,-1],"split_conditions":[-1.5326744E-1,-5.5142826E-1,-1.3772638E-1,7.406321E-1,-4.0381852E-1,-1.2991554E0,-6.93966E-1,-1.2551513E-1,-2.1976104E-2,-7.3979783E-1,-4.8262155E-1,-5.472976E-1,-2.08295E0,8.099872E-1,6.423252E-1,9.8411396E-2,1.589583E-1,-3.079903E-2,1.19813696E-1,-9.228896E-2,1.4958663E-1,1.3115503E-2,-1.2436145E-1,-1.1677735E-1,-2.478235E-2,5.398422E-3,1.5576898E-1],"split_indices":[15,73,73,14,16,41,64,0,0,34,26,73,33,67,73,0,0,0,0,0,0,0,0,0,0,0,0],"split_type":[0,0,0,0,0,0,0,0,0,0,0,0,0,0,0,0,0,0,0,0,0,0,0,0,0,0,0],"sum_hessian":[8.470659E2,3.9648575E2,4.5058014E2,2.0082994E1,3.7640277E2,4.1430627E2,3.6273888E1,1.907858E1,1.0044135E0,2.6834387E2,1.0805888E2,4.801835E0,4.0950443E2,6.8106446E0,2.9463243E1,2.281694E1,2.4552693E2,3.884152E1,6.921737E1,2.4641786E0,2.3376563E0,3.278964E0,4.0622546E2,5.7893057E0,1.0213388E0,1.6632017E1,1.2831225E1],"tree_param":{"num_deleted":"0","num_feature":"75","num_nodes":"27","size_leaf_vector":"1"}},{"base_weights":[-1.378643E-2,1.0885206E0,-1.0366719E0,4.3014932E-2,1.3019761E0,2.7455044E-1,-1.133325E0,8.7907916E-1,-9.392365E-1,1.4954865E0,7.8377163E-1,1.0740337E0,-9.793006E-1,8.766213E-2,-1.1449479E0,1.3325603E-1,-2.0951057E-2,-1.1355022E-1,6.273153E-2,1.5092503E-1,-2.5108123E-2,-6.272336E-2,1.1376824E-1,-2.4367893E-2,1.5840463E-1,-8.284303E-3,-1.15073584E-1,5.117209E-3,-1.1634656E-1],"categories":[],"categories_nodes":[],"categories_segments":[],"categories_sizes":[],"default_left":[0,0,0,0,0,0,0,0,0,0,0,0,0,0,0,0,0,0,0,0,0,0,0,0,0,0,0,0,0],"id":6,"left_children":[1,3,5,7,9,11,13,15,17,19,21,23,25,-1,27,-1,-1,-1,-1,-1,-1,-1,-1,-1,-1,-1,-1,-1,-1],"loss_changes":[9.109301E2,8.6724945E1,5.3417297E1,5.5818687E1,3.1207031E1,3.0696362E1,1.0125519E1,1.8391743E1,1.0327797E1,6.0041504E0,4.560383E1,1.2842575E1,1.754632E0,0E0,8.667908E0,0E0,0E0,0E0,0E0,0E0,0E0,0E0,0E0,0E0,0E0,0E0,0E0,0E0,0E0],"parents":[2147483647,0,0,1,1,2,2,3,3,4,4,5,5,6,6,7,7,8,8,9,9,10,10,11,11,12,12,14,14],"right_children":[2,4,6,8,10,12,14,16,18,20,22,24,26,-1,28,-1,-1,-1,-1,-1,-1,-1,-1,-1,-1,-1,-1,-1,-1],"split_conditions":[-1.5326744E-1,-4.5102358E-1,-1.0471885E0,-8.754825E-1,-3.754797E-1,6.040178E-2,-1.4345249E0,4.964806E-1,1.019573E0,-4.701931E-2,-1.13338E0,-6.2352574E-1,-4.1754556E-1,8.766213E-2,-1.5559564E0,1.3325603E-1,-2.0951057E-2,-1.1355022E-1,6.273153E-2,1.5092503E-1,-2.5108123E-2,-6.272336E-2,1.1376824E-1,-2.4367893E-2,1.5840463E-1,-8.284303E-3,-1.15073584E-1,5.117209E-3,-1.1634656E-1],"split_indices":[15,74,72,11,16,30,41,49,68,11,68,64,41,0,71,0,0,0,0,0,0,0,0,0,0,0,0,0,0],"split_type":[0,0,0,0,0,0,0,0,0,0,0,0,0,0,0,0,0,0,0,0,0,0,0,0,0,0,0,0,0],"sum_hessian":[8.058952E2,3.8785797E2,4.1803723E2,6.596461E1,3.2189337E2,2.857261E1,3.894646E2,3.5690723E1,3.0273882E1,2.3299963E2,8.889373E1,1.7535194E1,1.1037417E1,1.8113301E0,3.876533E2,2.5036842E1,1.0653882E1,2.7147821E1,3.1260607E0,2.3131265E2,1.6869887E0,1.76706E1,7.122313E1,5.0387783E0,1.2496415E1,2.0100145E0,9.027403E0,5.8830733E0,3.817702E2],"tree_param":{"num_deleted":"0","num_feature":"75","num_nodes":"29","size_leaf_vector":"1"}},{"base_weights":[-3.247291E-3,1.0569266E0,-9.5608E-1,-1.0923148E0,1.1993766E0,-1.165117E0,7.417726E-1,-1.1964059E-1,-2.0282179E-1,1.2762669E0,-8.1091255E-2,-1.183984E0,-1.8942052E-1,-6.8882996E-1,1.0417223E0,5.5857312E-2,-7.720801E-2,6.0290825E-2,1.3522337E-1,-1.0122947E-1,1.2510857E-1,-2.6961524E-2,-1.1974467E-1,-8.996588E-2,1.1370605E-1,7.5499855E-2,-1.1346232E-1,5.1019054E-2,1.5748054E-1],"categories":[],"categories_nodes":[],"categories_segments":[],"categories_sizes":[],"default_left":[0,0,0,0,0,0,0,0,0,0,0,0,0,0,0,0,0,0,0,0,0,0,0,0,0,0,0,0,0],"id":7,"left_children":[1,3,5,7,9,11,13,-1,15,17,19,21,23,25,27,-1,-1,-1,-1,-1,-1,-1,-1,-1,-1,-1,-1,-1,-1],"loss_changes":[7.867615E2,1.1417795E2,1.4644446E2,1.9275055E0,3.419055E1,6.506012E0,2.0274734E1,0E0,2.0174706E0,1.5894653E1,2.6762415E1,4.0900574E0,8.678716E0,6.328624E0,9.985043E0,0E0,0E0,0E0,0E0,0E0,0E0,0E0,0E0,0E0,0E0,0E0,0E0,0E0,0E0],"parents":[2147483647,0,0,1,1,2,2,3,3,4,4,5,5,6,6,8,8,9,9,10,10,11,11,12,12,13,13,14,14],"right_children":[2,4,6,8,10,12,14,-1,16,18,20,22,24,26,28,-1,-1,-1,-1,-1,-1,-1,-1,-1,-1,-1,-1,-1,-1],"split_conditions":[-8.377004E-2,-4.9521902E-1,-1.4768547E-1,-5.438627E-1,3.2898986E-1,1.8385668E0,-6.93966E-1,-1.1964059E-1,-5.1027733E-1,-7.3979783E-1,5.1890904E-1,-1.2930055E0,1.6767745E0,-1.1814619E0,1.9747294E-1,5.5857312E-2,-7.720801E-2,6.0290825E-2,1.3522337E-1,-1.0122947E-1,1.2510857E-1,-2.6961524E-2,-1.1974467E-1,-8.996588E-2,1.1370605E-1,7.5499855E-2,-1.1346232E-1,5.1019054E-2,1.5748054E-1],"split_indices":[11,73,73,73,12,16,64,0,55,34,14,42,14,64,5,0,0,0,0,0,0,0,0,0,0,0,0,0,0],"split_type":[0,0,0,0,0,0,0,0,0,0,0,0,0,0,0,0,0,0,0,0,0,0,0,0,0,0,0,0,0],"sum_hessian":[7.768415E2,3.6765698E2,4.0918454E2,2.2438831E1,3.4521814E2,3.646083E2,4.4576237E1,1.9779171E1,2.6596591E0,3.2566565E2,1.9552502E1,3.574822E2,7.126107E0,7.5015063E0,3.707473E1,1.145842E0,1.5138172E0,3.3922016E1,2.9174362E2,1.164951E1,7.9029913E0,5.4921045E0,3.5199008E2,4.8506775E0,2.2754297E0,1.6060967E0,5.8954096E0,1.954433E1,1.75304E1],"tree_param":{"num_deleted":"0","num_feature":"75","num_nodes":"29","size_leaf_vector":"1"}},{"base_weights":[-1.874839E-2,9.611834E-1,-9.867533E-1,2.804956E-1,1.3160923E0,-1.1319168E0,3.6880922E-1,9.69385E-1,-5.328997E-1,1.4049926E0,6.218799E-1,6.2765114E-2,-1.1431168E0,1.2400305E0,-1.4945813E-1,1.1863043E-1,-2.8678829E-2,-8.2079224E-2,1.19308434E-1,-1.768035E-2,1.4187805E-1,1.0656686E-1,-8.8685796E-2,-1.1488491E-1,3.2484684E-2,-6.6373297E-3,1.4010392E-1,1.4606382E-1,-5.3794682E-2],"categories":[],"categories_nodes":[],"categories_segments":[],"categories_sizes":[],"default_left":[0,0,0,0,0,0,0,0,0,0,0,0,0,0,0,0,0,0,0,0,0,0,0,0,0,0,0,0,0],"id":8,"left_children":[1,3,5,7,9,11,13,15,17,19,21,-1,23,25,27,-1,-1,-1,-1,-1,-1,-1,-1,-1,-1,-1,-1,-1,-1],"loss_changes":[6.954169E2,8.764465E1,7.298764E1,7.119088E1,1.3888306E1,7.287262E0,1.6633087E1,1.904522E1,3.0039118E1,4.8581543E0,2.0327484E1,0E0,3.1636658E0,2.9735374E0,1.5630539E1,0E0,0E0,0E0,0E0,0E0,0E0,0E0,0E0,0E0,0E0,0E0,0E0,0E0,0E0],"parents":[2147483647,0,0,1,1,2,2,3,3,4,4,5,5,6,6,7,7,8,8,9,9,10,10,12,12,13,13,14,14],"right_children":[2,4,6,8,10,12,14,16,18,20,22,-1,24,26,28,-1,-1,-1,-1,-1,-1,-1,-1,-1,-1,-1,-1,-1,-1],"split_conditions":[-5.518211E-2,-1.4768547E-1,-1.3404973E-1,-6.013357E-1,1.2685881E0,-1.4345249E0,-1.6085382E-1,-6.5342736E-1,1.4624026E0,-2.5755405E0,-6.058599E-1,6.2765114E-2,2.6194046E0,-1.033244E0,-8.834196E-1,1.1863043E-1,-2.8678829E-2,-8.2079224E-2,1.19308434E-1,-1.768035E-2,1.4187805E-1,1.0656686E-1,-8.8685796E-2,-1.1488491E-1,3.2484684E-2,-6.6373297E-3,1.4010392E-1,1.4606382E-1,-5.3794682E-2],"split_indices":[15,73,73,12,30,41,16,15,13,6,15,0,1,64,10,0,0,0,0,0,0,0,0,0,0,0,0,0,0],"split_type":[0,0,0,0,0,0,0,0,0,0,0,0,0,0,0,0,0,0,0,0,0,0,0,0,0,0,0,0,0],"sum_hessian":[7.311146E2,3.6332254E2,3.6779205E2,1.2512766E2,2.3819489E2,3.32365E2,3.5427074E1,6.764514E1,5.748252E1,2.1024698E2,2.7947914E1,1.754085E0,3.306109E2,1.2694549E1,2.2732525E1,5.773153E1,9.913611E0,4.971462E1,7.767903E0,1.7146565E0,2.0853232E2,2.1822569E1,6.1253457E0,3.2954144E2,1.069455E0,1.4573741E0,1.1237175E1,3.8823364E0,1.8850187E1],"tree_param":{"num_deleted":"0","num_feature":"75","num_nodes":"29","size_leaf_vector":"1"}},{"base_weights":[-4.8771417E-3,1.0542555E0,-8.094446E-1,-1.11472785E-1,1.1255369E0,-1.0626557E0,7.3946416E-1,1.279151E0,5.988152E-1,6.4559865E-1,-1.083985E0,-4.9036747E-1,9.654519E-1,1.2949605E-1,3.4462515E-2,-5.6846708E-2,1.0722449E-1,1.5339594E-1,-7.56058E-2,9.490357E-3,-1.1071717E-1,6.738864E-2,-9.209191E-2,3.914037E-2,1.4088029E-1],"categories":[],"categories_nodes":[],"categories_segments":[],"categories_sizes":[],"default_left":[0,0,0,0,0,0,0,0,0,0,0,0,0,0,0,0,0,0,0,0,0,0,0,0,0],"id":9,"left_children":[1,3,5,-1,7,9,11,13,15,17,19,21,23,-1,-1,-1,-1,-1,-1,-1,-1,-1,-1,-1,-1],"loss_changes":[5.907735E2,4.7527924E1,1.5530667E2,0E0,2.2720184E1,1.3052948E1,1.6022692E1,2.8609009E0,3.7867767E1,7.146265E0,9.268372E0,5.306433E0,1.156287E1,0E0,0E0,0E0,0E0,0E0,0E0,0E0,0E0,0E0,0E0,0E0,0E0],"parents":[2147483647,0,0,1,1,2,2,4,4,5,5,6,6,7,7,8,8,9,9,10,10,11,11,12,12],"right_children":[2,4,6,-1,8,10,12,14,16,18,20,22,24,-1,-1,-1,-1,-1,-1,-1,-1,-1,-1,-1,-1],"split_conditions":[-3.7835938E-1,-5.5142826E-1,-1.3772638E-1,-1.11472785E-1,-3.754797E-1,-1.2666677E0,-6.93966E-1,-4.1126928E-1,-9.3121904E-1,2.634532E-2,-1.7959604E0,-1.1814619E0,7.073089E-2,1.2949605E-1,3.4462515E-2,-5.6846708E-2,1.0722449E-1,1.5339594E-1,-7.56058E-2,9.490357E-3,-1.1071717E-1,6.738864E-2,-9.209191E-2,3.914037E-2,1.4088029E-1],"split_indices":[11,73,73,0,16,72,64,6,68,14,33,64,5,0,0,0,0,0,0,0,0,0,0,0,0],"split_type":[0,0,0,0,0,0,0,0,0,0,0,0,0,0,0,0,0,0,0,0,0,0,0,0,0],"sum_hessian":[6.9127783E2,2.982937E2,3.9298416E2,9.025428E0,2.8926828E2,3.3803683E2,5.4947327E1,2.2284795E2,6.642032E1,3.8077538E0,3.3422906E2,8.347906E0,4.659942E1,2.1876146E2,4.0864964E0,1.910775E1,4.731257E1,2.272848E0,1.5349059E0,6.387232E0,3.2784183E2,2.1011155E0,6.2467914E0,2.1127058E1,2.5472363E1],"tree_param":{"num_deleted":"0","num_feature":"75","num_nodes":"25","size_leaf_vector":"1"}},{"base_weights":[-2.7572598E-2,8.440942E-1,-9.381622E-1,-1.0167525E0,9.6119237E-1,-1.0946546E0,2.0593408E-1,-1.1461957E-1,6.4264804E-2,-3.1714145E-2,1.0989045E0,3.1701344E-1,-1.1172136E0,-3.5308787E-1,1.2519783E0,-8.897229E-2,1.12310424E-1,3.4447655E-2,1.1879664E-1,-8.609835E-2,1.5505448E-1,-2.0226177E-2,-1.12982295E-1,-9.064725E-2,5.5400874E-2,9.173591E-3,1.5778421E-1],"categories":[],"categories_nodes":[],"categories_segments":[],"categories_sizes":[],"default_left":[0,0,0,0,0,0,0,0,0,0,0,0,0,0,0,0,0,0,0,0,0,0,0,0,0,0,0],"id":10,"left_children":[1,3,5,7,9,11,13,-1,-1,15,17,19,21,23,25,-1,-1,-1,-1,-1,-1,-1,-1,-1,-1,-1,-1],"loss_changes":[5.126139E2,7.288115E1,5.6775513E1,5.037195E0,4.255423E1,9.207428E0,2.315759E1,0E0,0E0,3.949139E1,1.7941498E1,8.820887E0,2.9308777E0,1.3601873E1,5.0536537E0,0E0,0E0,0E0,0E0,0E0,0E0,0E0,0E0,0E0,0E0,0E0,0E0],"parents":[2147483647,0,0,1,1,2,2,3,3,4,4,5,5,6,6,9,9,10,10,11,11,12,12,13,13,14,14],"right_children":[2,4,6,8,10,12,14,-1,-1,16,18,20,22,24,26,-1,-1,-1,-1,-1,-1,-1,-1,-1,-1,-1,-1],"split_conditions":[-5.518211E-2,-4.9521902E-1,-1.552341E-1,1.127759E0,-4.1085225E-2,-1.2991554E0,3.668E-1,-1.1461957E-1,6.4264804E-2,7.7992153E-1,-7.3979783E-1,4.3767083E-1,-1.8711387E0,6.423252E-1,-2.049666E-1,-8.897229E-2,1.12310424E-1,3.4447655E-2,1.1879664E-1,-8.609835E-2,1.5505448E-1,-2.0226177E-2,-1.12982295E-1,-9.064725E-2,5.5400874E-2,9.173591E-3,1.5778421E-1],"split_indices":[15,73,73,21,71,41,26,0,0,14,34,54,33,73,41,0,0,0,0,0,0,0,0,0,0,0,0],"split_type":[0,0,0,0,0,0,0,0,0,0,0,0,0,0,0,0,0,0,0,0,0,0,0,0,0,0,0],"sum_hessian":[6.4383075E2,3.28983E2,3.1484775E2,1.9021585E1,3.0996143E2,2.7700195E2,3.7845795E1,1.793205E1,1.0895352E0,3.7847828E1,2.7211362E2,4.151685E0,2.7285025E2,2.5096369E1,1.2749427E1,2.1846119E1,1.6001709E1,2.9245705E1,2.4286789E2,2.278133E0,1.8735524E0,3.9408128E0,2.6890945E2,1.558764E1,9.508728E0,3.0766144E0,9.672812E0],"tree_param":{"num_deleted":"0","num_feature":"75","num_nodes":"27","size_leaf_vector":"1"}},{"base_weights":[9.425238E-5,8.4141076E-1,-8.4471166E-1,-5.1388167E-2,1.0148692E0,5.125276E-1,-9.944795E-1,7.123067E-1,-5.9556484E-1,1.2006246E0,4.96045E-1,-6.652303E-1,9.8118603E-1,-1.076442E0,-2.8298578E-1,-9.740137E-2,9.408011E-2,9.218195E-2,-7.837457E-2,4.1285668E-2,1.2278215E-1,-6.702137E-3,1.3216624E-1,1.10510305E-1,-1.05169706E-1,1.2608683E-1,-4.0474694E-2,1.5598215E-2,-1.0869328E-1,5.21752E-2,-8.549217E-2],"categories":[],"categories_nodes":[],"categories_segments":[],"categories_sizes":[],"default_left":[0,0,0,0,0,0,0,0,0,0,0,0,0,0,0,0,0,0,0,0,0,0,0,0,0,0,0,0,0,0,0],"id":11,"left_children":[1,3,5,7,9,11,13,15,17,19,21,23,25,27,29,-1,-1,-1,-1,-1,-1,-1,-1,-1,-1,-1,-1,-1,-1,-1,-1],"loss_changes":[4.3375165E2,4.740451E1,6.2406784E1,2.1491934E1,2.4083435E1,1.7720589E1,1.5707916E1,9.219148E0,9.330451E0,3.5179443E0,3.2265266E1,7.592109E0,9.241087E0,3.3483582E0,1.4125211E1,0E0,0E0,0E0,0E0,0E0,0E0,0E0,0E0,0E0,0E0,0E0,0E0,0E0,0E0,0E0,0E0],"parents":[2147483647,0,0,1,1,2,2,3,3,4,4,5,5,6,6,7,7,8,8,9,9,10,10,11,11,12,12,13,13,14,14],"right_children":[2,4,6,8,10,12,14,16,18,20,22,24,26,28,30,-1,-1,-1,-1,-1,-1,-1,-1,-1,-1,-1,-1,-1,-1,-1,-1],"split_conditions":[-8.377004E-2,-4.578937E-1,-9.8939496E-1,-1.10054E0,-3.754797E-1,-6.2352574E-1,1.382344E0,-2.266243E0,-1.1898617E0,-9.7303677E-1,7.195436E-1,-1.1814619E0,8.1007594E-1,-1.0668033E0,4.3461442E-1,-9.740137E-2,9.408011E-2,9.218195E-2,-7.837457E-2,4.1285668E-2,1.2278215E-1,-6.702137E-3,1.3216624E-1,1.10510305E-1,-1.05169706E-1,1.2608683E-1,-4.0474694E-2,1.5598215E-2,-1.0869328E-1,5.21752E-2,-8.549217E-2],"split_indices":[11,74,72,11,16,64,13,63,41,66,13,64,64,74,72,0,0,0,0,0,0,0,0,0,0,0,0,0,0,0,0],"split_type":[0,0,0,0,0,0,0,0,0,0,0,0,0,0,0,0,0,0,0,0,0,0,0,0,0,0,0,0,0,0,0],"sum_hessian":[6.0827386E2,3.0476837E2,3.0350552E2,4.9694115E1,2.5507425E2,2.9921955E1,2.7358356E2,2.054808E1,2.9146034E1,1.8685881E2,6.821544E1,8.398001E0,2.1523954E1,2.4486298E2,2.872059E1,2.0626554E0,1.8485424E1,2.7856376E0,2.6360397E1,6.775796E0,1.8008301E2,4.1102554E1,2.7112888E1,1.1716024E0,7.226398E0,1.798484E1,3.5391147E0,1.94971E0,2.4291327E2,1.1968356E1,1.6752234E1],"tree_param":{"num_deleted":"0","num_feature":"75","num_nodes":"31","size_leaf_vector":"1"}},{"base_weights":[3.3544134E-3,8.2946604E-1,-8.305573E-1,-9.860373E-1,9.2415375E-1,-1.0477796E0,4.6205807E-1,1.562815E-2,-1.0827323E-1,1.0981375E0,3.7366223E-1,7.422475E-1,-1.0699817E0,1.4488631E0,1.7813578E-1,7.359471E-2,1.2501453E-1,-3.1805612E-2,8.224652E-2,1.5107264E-1,-6.0682442E-2,-1.0936464E-1,-1.3657525E-2,1.5652454E-1,2.7870132E-2,-2.5282523E-2,1.0510363E-1],"categories":[],"categories_nodes":[],"categories_segments":[],"categories_sizes":[],"default_left":[0,0,0,0,0,0,0,0,0,0,0,0,0,0,0,0,0,0,0,0,0,0,0,0,0,0,0],"id":12,"left_children":[1,3,5,7,9,11,13,-1,-1,15,17,19,21,23,25,-1,-1,-1,-1,-1,-1,-1,-1,-1,-1,-1,-1],"loss_changes":[3.975498E2,5.0745285E1,8.112108E1,1.8098946E0,2.6027649E1,1.0577637E1,1.1512521E1,0E0,0E0,1.0599319E1,2.1311838E1,4.6555614E0,5.2307434E0,8.23019E-1,1.2967632E1,0E0,0E0,0E0,0E0,0E0,0E0,0E0,0E0,0E0,0E0,0E0,0E0],"parents":[2147483647,0,0,1,1,2,2,3,3,4,4,5,5,6,6,9,9,10,10,11,11,12,12,13,13,14,14],"right_children":[2,4,6,8,10,12,14,-1,-1,16,18,20,22,24,26,-1,-1,-1,-1,-1,-1,-1,-1,-1,-1,-1,-1],"split_conditions":[-8.377004E-2,-5.100026E-1,-1.552341E-1,-8.342343E-1,6.5732133E-1,-1.1644554E0,-8.686495E-1,1.562815E-2,-1.0827323E-1,-1.3772638E-1,6.8736446E-1,4.3615885E-2,1.8385668E0,8.163378E-1,8.836478E-1,7.359471E-2,1.2501453E-1,-3.1805612E-2,8.224652E-2,1.5107264E-1,-6.0682442E-2,-1.0936464E-1,-1.3657525E-2,1.5652454E-1,2.7870132E-2,-2.5282523E-2,1.0510363E-1],"split_indices":[11,73,73,72,45,72,28,0,0,73,62,42,16,57,73,0,0,0,0,0,0,0,0,0,0,0,0],"split_type":[0,0,0,0,0,0,0,0,0,0,0,0,0,0,0,0,0,0,0,0,0,0,0,0,0,0,0],"sum_hessian":[5.750756E2,2.8889154E2,2.8618405E2,1.3853657E1,2.750379E2,2.4517255E2,4.1011513E1,1.0330737E0,1.2820583E1,2.0823125E2,6.680664E1,2.6063426E0,2.425662E2,8.246571E0,3.2764942E1,6.328441E1,1.4494684E2,2.6403511E1,4.0403133E1,1.5841364E0,1.0222062E0,2.3640102E2,6.1651845E0,7.1934867E0,1.0530834E0,2.2410824E1,1.0354119E1],"tree_param":{"num_deleted":"0","num_feature":"75","num_nodes":"27","size_leaf_vector":"1"}},{"base_weights":[-1.8065419E-3,7.567204E-1,-8.480234E-1,-9.493383E-2,9.4625384E-1,3.8639092E-1,-9.533474E-1,-8.5084677E-1,5.166307E-1,1.6701491E-1,1.0596911E0,-5.472061E-1,9.405758E-1,5.380434E-1,-9.875309E-1,-1.1086603E-1,2.7559036E-2,8.588698E-2,-2.9715061E-2,-6.650271E-2,1.350074E-1,4.319759E-2,1.1248612E-1,1.0489352E-1,-9.559798E-2,1.2279836E-1,-8.4874205E-2,1.752322E-1,-4.4859894E-2,3.5023224E-2,-1.0131957E-1],"categories":[],"categories_nodes":[],"categories_segments":[],"categories_sizes":[],"default_left":[0,0,0,0,0,0,0,0,0,0,0,0,0,0,0,0,0,0,0,0,0,0,0,0,0,0,0,0,0,0,0],"id":13,"left_children":[1,3,5,7,9,11,13,15,17,19,21,23,25,27,29,-1,-1,-1,-1,-1,-1,-1,-1,-1,-1,-1,-1,-1,-1,-1,-1],"loss_changes":[3.4948364E2,4.6434647E1,3.3828354E1,2.5021154E1,2.0590378E1,1.1350743E1,1.2634949E1,7.3213177E0,8.614743E0,3.1454243E1,7.896057E0,6.505352E0,7.9900913E0,7.9349637E0,8.335541E0,0E0,0E0,0E0,0E0,0E0,0E0,0E0,0E0,0E0,0E0,0E0,0E0,0E0,0E0,0E0,0E0],"parents":[2147483647,0,0,1,1,2,2,3,3,4,4,5,5,6,6,7,7,8,8,9,9,10,10,11,11,12,12,13,13,14,14],"right_children":[2,4,6,8,10,12,14,16,18,20,22,24,26,28,30,-1,-1,-1,-1,-1,-1,-1,-1,-1,-1,-1,-1,-1,-1,-1,-1],"split_conditions":[-5.518211E-2,-4.5481947E-1,-1.1203482E0,5.2984744E-1,-4.1085225E-2,-6.2352574E-1,-1.7959604E0,9.067394E-1,-8.653887E-1,7.7992153E-1,-7.3979783E-1,-1.1814619E0,1.4062787E0,-6.038494E-1,-1.5559564E0,-1.1086603E-1,2.7559036E-2,8.588698E-2,-2.9715061E-2,-6.650271E-2,1.350074E-1,4.319759E-2,1.1248612E-1,1.0489352E-1,-9.559798E-2,1.2279836E-1,-8.4874205E-2,1.752322E-1,-4.4859894E-2,3.5023224E-2,-1.0131957E-1],"split_indices":[15,74,72,71,71,64,33,68,15,14,34,64,30,74,71,0,0,0,0,0,0,0,0,0,0,0,0,0,0,0,0],"split_type":[0,0,0,0,0,0,0,0,0,0,0,0,0,0,0,0,0,0,0,0,0,0,0,0,0,0,0,0,0,0,0],"sum_hessian":[5.424705E2,2.8611246E2,2.5635806E2,5.217356E1,2.3393889E2,1.9943878E1,2.3641418E2,2.3158127E1,2.9015432E1,3.0042067E1,2.0389682E2,7.433599E0,1.2510279E1,4.9670486E0,2.3144713E2,1.885782E1,4.3003078E0,2.038643E1,8.629003E0,1.7894672E1,1.2147395E1,1.9895235E1,1.8400159E2,1.1963092E0,6.2372894E0,1.104922E1,1.4610584E0,1.8787684E0,3.0882802E0,4.118633E0,2.2732849E2],"tree_param":{"num_deleted":"0","num_feature":"75","num_nodes":"31","size_leaf_vector":"1"}},{"base_weights":[-1.3335214E-2,7.07415E-1,-8.4721684E-1,1.0570743E-1,1.0537533E0,-1.0152344E0,3.263997E-1,6.314724E-1,-4.9010542E-1,1.1635097E0,2.5978944E-1,-3.2612267E-1,-1.0584782E0,7.36317E-1,-4.8113272E-1,9.331895E-2,-6.817519E-2,-8.995072E-2,4.225355E-2,2.2357754E-2,1.1812323E-1,8.720576E-2,-1.2358689E-1,1.4315426E-1,-6.737411E-2,-1.0747395E-1,-1.0141602E-2,-6.4466395E-3,1.2323808E-1,-1.152627E-1,3.897367E-2],"categories":[],"categories_nodes":[],"categories_segments":[],"categories_sizes":[],"default_left":[0,0,0,0,0,0,0,0,0,0,0,0,0,0,0,0,0,0,0,0,0,0,0,0,0,0,0,0,0,0,0],"id":14,"left_children":[1,3,5,7,9,11,13,15,17,19,21,23,25,27,29,-1,-1,-1,-1,-1,-1,-1,-1,-1,-1,-1,-1,-1,-1,-1,-1],"loss_changes":[3.1015988E2,5.757521E1,4.7507355E1,3.2335964E1,1.4998047E1,5.898651E0,1.0522593E1,2.232858E1,1.8497307E1,2.3006744E0,2.1783928E1,9.406816E0,2.9523468E0,8.330277E0,6.8512077E0,0E0,0E0,0E0,0E0,0E0,0E0,0E0,0E0,0E0,0E0,0E0,0E0,0E0,0E0,0E0,0E0],"parents":[2147483647,0,0,1,1,2,2,3,3,4,4,5,5,6,6,7,7,8,8,9,9,10,10,11,11,12,12,13,13,14,14],"right_children":[2,4,6,8,10,12,14,16,18,20,22,24,26,28,30,-1,-1,-1,-1,-1,-1,-1,-1,-1,-1,-1,-1,-1,-1,-1,-1],"split_conditions":[-5.518211E-2,-1.552341E-1,-1.3404973E-1,-6.013357E-1,1.3225694E0,-9.6078604E-1,-8.567765E-3,-6.5342736E-1,1.3657115E-1,-2.3645344E0,-6.335588E-1,1.624715E-2,1.1233488E0,-1.5599005E-1,6.429953E-1,9.331895E-2,-6.817519E-2,-8.995072E-2,4.225355E-2,2.2357754E-2,1.1812323E-1,8.720576E-2,-1.2358689E-1,1.4315426E-1,-6.737411E-2,-1.0747395E-1,-1.0141602E-2,-6.4466395E-3,1.2323808E-1,-1.152627E-1,3.897367E-2],"split_indices":[15,73,73,12,30,32,30,15,68,0,15,15,74,34,12,0,0,0,0,0,0,0,0,0,0,0,0,0,0,0,0],"split_type":[0,0,0,0,0,0,0,0,0,0,0,0,0,0,0,0,0,0,0,0,0,0,0,0,0,0,0,0,0,0,0],"sum_hessian":[5.140583E2,2.7581464E2,2.3824362E2,1.012369E2,1.7457774E2,2.085256E2,2.9718027E1,5.3748016E1,4.7488884E1,1.5296643E2,2.1611322E1,1.2817298E1,1.957083E2,1.9770416E1,9.947612E0,4.394168E1,9.806335E0,3.2792763E1,1.469612E1,3.08279E0,1.4988364E2,1.5629935E1,5.981386E0,1.6014968E0,1.1215801E1,1.9231773E2,3.3905766E0,7.89529E0,1.1875126E1,5.4340706E0,4.5135417E0],"tree_param":{"num_deleted":"0","num_feature":"75","num_nodes":"31","size_leaf_vector":"1"}},{"base_weights":[-1.4498641E-2,6.9317794E-1,-8.2977444E-1,9.916867E-2,1.0614797E0,-9.927634E-1,1.20991E-1,8.301385E-1,-3.3059862E-1,1.1023642E0,-1.6702725E-1,3.9907822E-1,-1.0247334E0,1.3383162E0,-1.7923535E-1,-8.449497E-2,9.7363725E-2,9.037853E-2,-5.877049E-2,1.005526E-3,1.12009905E-1,9.265768E-2,-1.2816082E-1,1.5718175E-1,-3.7915282E-2,4.721922E-2,-1.0438255E-1,2.1202506E-2,1.5015277E-1,-5.1953603E-2,7.1628995E-2],"categories":[],"categories_nodes":[],"categories_segments":[],"categories_sizes":[],"default_left":[0,0,0,0,0,0,0,0,0,0,0,0,0,0,0,0,0,0,0,0,0,0,0,0,0,0,0,0,0,0,0],"id":15,"left_children":[1,3,5,7,9,11,13,15,17,19,21,23,25,27,29,-1,-1,-1,-1,-1,-1,-1,-1,-1,-1,-1,-1,-1,-1,-1,-1],"loss_changes":[2.7603784E2,5.5930252E1,3.457045E1,3.1416481E1,8.120041E0,8.858383E0,1.2455758E1,9.713797E0,2.0570797E1,2.9535217E0,8.448952E0,5.144115E0,5.805908E0,9.189091E-1,8.811858E0,0E0,0E0,0E0,0E0,0E0,0E0,0E0,0E0,0E0,0E0,0E0,0E0,0E0,0E0,0E0,0E0],"parents":[2147483647,0,0,1,1,2,2,3,3,4,4,5,5,6,6,7,7,8,8,9,9,10,10,11,11,12,12,13,13,14,14],"right_children":[2,4,6,8,10,12,14,16,18,20,22,24,26,28,30,-1,-1,-1,-1,-1,-1,-1,-1,-1,-1,-1,-1,-1,-1,-1,-1],"split_conditions":[-5.518211E-2,-1.552341E-1,-1.552341E-1,-7.5462544E-1,2.9960139E0,-1.7959604E0,-8.686495E-1,-4.9521902E-1,-1.086467E0,-2.2039604E0,-1.4002192E0,-6.038494E-1,-1.1644554E0,-8.714054E-1,9.2125434E-1,-8.449497E-2,9.7363725E-2,9.037853E-2,-5.877049E-2,1.005526E-3,1.12009905E-1,9.265768E-2,-1.2816082E-1,1.5718175E-1,-3.7915282E-2,4.721922E-2,-1.0438255E-1,2.1202506E-2,1.5015277E-1,-5.1953603E-2,7.1628995E-2],"split_indices":[15,73,73,33,30,33,28,73,2,70,11,74,72,9,73,0,0,0,0,0,0,0,0,0,0,0,0,0,0,0,0],"split_type":[0,0,0,0,0,0,0,0,0,0,0,0,0,0,0,0,0,0,0,0,0,0,0,0,0,0,0,0,0,0,0],"sum_hessian":[4.7644504E2,2.5513353E2,2.2131151E2,9.813209E1,1.5700143E2,1.8888666E2,3.2424854E1,3.5988846E1,6.214324E1,1.5204411E2,4.9573245E0,3.9833946E0,1.8490326E2,5.7307477E0,2.6694105E1,2.4540503E0,3.3534794E1,1.0278807E1,5.1864433E1,2.4542117E0,1.495899E2,2.5873482E0,2.369976E0,1.1821885E0,2.801206E0,2.029723E0,1.8287354E2,1.0163299E0,4.714418E0,1.964778E1,7.046326E0],"tree_param":{"num_deleted":"0","num_feature":"75","num_nodes":"31","size_leaf_vector":"1"}},{"base_weights":[-1.8488606E-3,6.777229E-1,-7.52304E-1,-8.9743745E-1,7.7582943E-1,-9.84449E-1,4.4155163E-1,5.6755908E-2,-1.05611466E-1,9.762194E-1,2.0081104E-1,-1.0114888E0,5.471597E-1,-6.5959454E-1,6.3960606E-1,1.105743E-1,4.9684316E-2,-5.141108E-2,7.053001E-2,2.3972115E-2,-1.0262455E-1,-6.0882915E-2,1.3535374E-1,-9.805368E-2,2.8340412E-2,7.900228E-2,-8.094815E-2],"categories":[],"categories_nodes":[],"categories_segments":[],"categories_sizes":[],"default_left":[0,0,0,0,0,0,0,0,0,0,0,0,0,0,0,0,0,0,0,0,0,0,0,0,0,0,0],"id":16,"left_children":[1,3,5,7,9,11,13,-1,-1,15,17,19,21,23,25,-1,-1,-1,-1,-1,-1,-1,-1,-1,-1,-1,-1],"loss_changes":[2.2988283E2,3.7251747E1,5.9801888E1,3.9313297E0,2.5525208E1,7.993347E0,8.177532E0,0E0,0E0,9.712555E0,2.1622736E1,3.5118866E0,4.334121E0,2.0676055E0,7.31991E0,0E0,0E0,0E0,0E0,0E0,0E0,0E0,0E0,0E0,0E0,0E0,0E0],"parents":[2147483647,0,0,1,1,2,2,3,3,4,4,5,5,6,6,9,9,10,10,11,11,12,12,13,13,14,14],"right_children":[2,4,6,8,10,12,14,-1,-1,16,18,20,22,24,26,-1,-1,-1,-1,-1,-1,-1,-1,-1,-1,-1,-1],"split_conditions":[-8.377004E-2,-4.9521902E-1,-1.3404973E-1,-9.8939496E-1,6.286416E-1,1.9803498E0,-6.93966E-1,5.6755908E-2,-1.05611466E-1,-7.0853233E-1,6.8736446E-1,-2.1470642E0,1.5662975E0,5.0877196E-1,1.2685881E0,1.105743E-1,4.9684316E-2,-5.141108E-2,7.053001E-2,2.3972115E-2,-1.0262455E-1,-6.0882915E-2,1.3535374E-1,-9.805368E-2,2.8340412E-2,7.900228E-2,-8.094815E-2],"split_indices":[11,73,73,72,45,14,64,0,0,11,62,33,27,58,30,0,0,0,0,0,0,0,0,0,0,0,0],"split_type":[0,0,0,0,0,0,0,0,0,0,0,0,0,0,0,0,0,0,0,0,0,0,0,0,0,0,0],"sum_hessian":[4.4876147E2,2.3555368E2,2.132078E2,1.33332205E1,2.2222046E2,1.7864558E2,3.4562202E1,1.051194E0,1.2282027E1,1.6427428E2,5.794618E1,1.758801E2,2.7654848E0,4.9135275E0,2.9648676E1,1.283016E2,3.597267E1,2.3965334E1,3.3980846E1,1.8724382E0,1.7400766E2,1.2370645E0,1.5284202E0,3.636176E0,1.2773513E0,2.727257E1,2.3761058E0],"tree_param":{"num_deleted":"0","num_feature":"75","num_nodes":"27","size_leaf_vector":"1"}},{"base_weights":[-3.4978006E-2,-5.989173E-1,7.9989415E-1,5.4782164E-1,-8.56791E-1,9.6140754E-1,4.2046312E-2,1.0394373E0,-5.3549748E-2,-9.148015E-2,-9.608444E-1,1.0664998E0,2.9731715E-1,-7.840374E-1,5.407229E-1,3.8136076E-4,1.0878499E-1,4.1490734E-2,-1.4294955E-1,-3.743748E-2,1.5744345E-1,5.252173E-2,-9.7675174E-2,1.11307226E-1,4.717575E-2,-3.1788353E-2,1.0359255E-1,6.796683E-2,-1.3483539E-1,-7.0047E-2,7.049217E-2],"categories":[],"categories_nodes":[],"categories_segments":[],"categories_sizes":[],"default_left":[0,0,0,0,0,0,0,0,0,0,0,0,0,0,0,0,0,0,0,0,0,0,0,0,0,0,0,0,0,0,0],"id":17,"left_children":[1,3,5,7,9,11,13,15,17,19,21,23,25,27,29,-1,-1,-1,-1,-1,-1,-1,-1,-1,-1,-1,-1,-1,-1,-1,-1],"loss_changes":[1.9825188E2,7.477746E1,2.074096E1,1.3875028E1,1.6279953E1,9.447098E0,1.3141837E1,1.2877674E0,1.4758041E1,1.270419E1,4.787781E0,2.8099365E0,9.645145E0,1.0852671E1,4.537844E0,0E0,0E0,0E0,0E0,0E0,0E0,0E0,0E0,0E0,0E0,0E0,0E0,0E0,0E0,0E0,0E0],"parents":[2147483647,0,0,1,1,2,2,3,3,4,4,5,5,6,6,7,7,8,8,9,9,10,10,11,11,12,12,13,13,14,14],"right_children":[2,4,6,8,10,12,14,16,18,20,22,24,26,28,30,-1,-1,-1,-1,-1,-1,-1,-1,-1,-1,-1,-1,-1,-1,-1,-1],"split_conditions":[-1.4768547E-1,-8.475498E-1,9.838063E-1,-9.53332E-2,-8.18889E-1,2.683649E-1,3.7280387E-1,-5.315637E-1,-2.0560935E-1,1.2326603E0,-1.3357822E0,1.2685881E0,4.4769086E-2,-1.0959072E0,-7.522827E-1,3.8136076E-4,1.0878499E-1,4.1490734E-2,-1.4294955E-1,-3.743748E-2,1.5744345E-1,5.252173E-2,-9.7675174E-2,1.11307226E-1,4.717575E-2,-3.1788353E-2,1.0359255E-1,6.796683E-2,-1.3483539E-1,-7.0047E-2,7.049217E-2],"split_indices":[73,11,45,1,33,11,5,73,73,10,72,30,5,6,64,0,0,0,0,0,0,0,0,0,0,0,0,0,0,0,0],"split_type":[0,0,0,0,0,0,0,0,0,0,0,0,0,0,0,0,0,0,0,0,0,0,0,0,0,0,0,0,0,0,0],"sum_hessian":[4.1906284E2,2.502838E2,1.6877902E2,4.574334E1,2.0454047E2,1.3890651E2,2.9872517E1,2.4767603E1,2.0975737E1,2.4706173E1,1.7983429E2,1.19404755E2,1.9501759E1,1.102944E1,1.8843077E1,1.1542872E0,2.3613316E1,1.6169197E1,4.806539E0,2.1782486E1,2.923685E0,1.5655298E0,1.7826877E2,1.0992532E2,9.479427E0,1.09505005E1,8.551258E0,3.0121672E0,8.017272E0,1.8199482E0,1.7023129E1],"tree_param":{"num_deleted":"0","num_feature":"75","num_nodes":"31","size_leaf_vector":"1"}},{"base_weights":[8.011717E-3,5.912336E-1,-7.525096E-1,-9.485269E-1,6.9007206E-1,-9.561005E-1,1.9541878E-1,-1.03935495E-1,1.13046E-2,9.9296105E-1,2.9142088E-1,3.3372203E-3,-1.0037752E0,1.2227964E0,-1.1766715E-1,1.0750582E-1,3.295657E-2,-1.1650059E-2,9.070341E-2,1.2220123E-1,-5.8440384E-2,-1.0315192E-1,5.0968915E-2,1.9228615E-2,1.3593303E-1,-3.2251295E-2,9.697031E-2],"categories":[],"categories_nodes":[],"categories_segments":[],"categories_sizes":[],"default_left":[0,0,0,0,0,0,0,0,0,0,0,0,0,0,0,0,0,0,0,0,0,0,0,0,0,0,0],"id":18,"left_children":[1,3,5,7,9,11,13,-1,-1,15,17,19,21,23,25,-1,-1,-1,-1,-1,-1,-1,-1,-1,-1,-1,-1],"loss_changes":[1.8023055E2,3.5652504E1,3.4223434E1,1.4955788E0,2.5873344E1,6.651932E0,1.044077E1,0E0,0E0,6.328827E0,2.3953192E1,6.356461E0,6.340271E0,8.0296516E-1,5.980954E0,0E0,0E0,0E0,0E0,0E0,0E0,0E0,0E0,0E0,0E0,0E0,0E0],"parents":[2147483647,0,0,1,1,2,2,3,3,4,4,5,5,6,6,9,9,10,10,11,11,12,12,13,13,14,14],"right_children":[2,4,6,8,10,12,14,-1,-1,16,18,20,22,24,26,-1,-1,-1,-1,-1,-1,-1,-1,-1,-1,-1,-1],"split_conditions":[1.624715E-2,-5.127195E-1,-1.552341E-1,3.4184328E-1,-9.0510607E-1,-6.997004E-1,-8.621357E-1,-1.03935495E-1,1.13046E-2,-2.8579825E-1,-1.0068581E-1,2.422734E-1,1.1233488E0,1.9700406E-1,1.1631863E0,1.0750582E-1,3.295657E-2,-1.1650059E-2,9.070341E-2,1.2220123E-1,-5.8440384E-2,-1.0315192E-1,5.0968915E-2,1.9228615E-2,1.3593303E-1,-3.2251295E-2,9.697031E-2],"split_indices":[15,73,73,74,6,72,10,0,0,16,26,6,74,6,34,0,0,0,0,0,0,0,0,0,0,0,0],"split_type":[0,0,0,0,0,0,0,0,0,0,0,0,0,0,0,0,0,0,0,0,0,0,0,0,0,0,0],"sum_hessian":[4.0433096E2,2.2896606E2,1.753649E2,1.3292425E1,2.1567365E2,1.4435294E2,3.1011961E1,1.2264045E1,1.0283797E0,1.21709694E2,9.396395E1,6.877405E0,1.3747552E2,6.5646677E0,2.4447294E1,1.07754234E2,1.3955454E1,5.7003017E1,3.6960938E1,1.886532E0,4.9908733E0,1.3531348E2,2.1620545E0,1.0497626E0,5.514905E0,2.1163734E1,3.283559E0],"tree_param":{"num_deleted":"0","num_feature":"75","num_nodes":"27","size_leaf_vector":"1"}},{"base_weights":[-1.8439562E-3,-6.794909E-1,6.36545E-1,-9.208816E-1,1.8208452E-1,-4.8621226E-2,8.859904E-1,-9.9308777E-1,3.1581816E-1,-4.5522144E-1,7.292534E-1,8.547949E-1,-3.061532E-1,7.046948E-2,9.9568355E-1,-3.016488E-2,-1.0333788E-1,-8.378728E-2,1.1608108E-1,6.0968548E-2,-7.656445E-2,3.2401487E-2,1.424617E-1,1.0314389E-1,-2.8457746E-2,-4.953696E-2,9.3264185E-2,6.57885E-2,-8.252231E-2,-7.5096935E-2,1.0272118E-1],"categories":[],"categories_nodes":[],"categories_segments":[],"categories_sizes":[],"default_left":[0,0,0,0,0,0,0,0,0,0,0,0,0,0,0,0,0,0,0,0,0,0,0,0,0,0,0,0,0,0,0],"id":19,"left_children":[1,3,5,7,9,11,13,15,17,19,21,23,25,27,29,-1,-1,-1,-1,-1,-1,-1,-1,-1,-1,-1,-1,-1,-1,-1,-1],"loss_changes":[1.6350525E2,3.8298058E1,3.330545E1,1.3117104E1,1.4615289E1,1.2567214E1,1.2697754E1,3.4690552E0,9.423016E0,6.925235E0,5.856886E0,2.7079678E0,1.0282071E1,1.0012335E1,7.6951523E0,0E0,0E0,0E0,0E0,0E0,0E0,0E0,0E0,0E0,0E0,0E0,0E0,0E0,0E0,0E0,0E0],"parents":[2147483647,0,0,1,1,2,2,3,3,4,4,5,5,6,6,7,7,8,8,9,9,10,10,11,11,12,12,13,13,14,14],"right_children":[2,4,6,8,10,12,14,16,18,20,22,24,26,28,30,-1,-1,-1,-1,-1,-1,-1,-1,-1,-1,-1,-1,-1,-1,-1,-1],"split_conditions":[-4.1085225E-2,-1.552341E-1,-3.1245863E-1,1.8723505E0,1.9927987E-1,-1.343521E0,-7.3979783E-1,-1.1061715E0,1.4135194E-1,-3.0687433E-1,-6.221065E-1,5.5426586E-1,7.80683E-1,-7.5462544E-1,-5.438627E-1,-3.016488E-2,-1.0333788E-1,-8.378728E-2,1.1608108E-1,6.0968548E-2,-7.656445E-2,3.2401487E-2,1.424617E-1,1.0314389E-1,-2.8457746E-2,-4.953696E-2,9.3264185E-2,6.57885E-2,-8.252231E-2,-7.5096935E-2,1.0272118E-1],"split_indices":[71,73,74,13,2,11,34,33,62,16,72,18,13,33,73,0,0,0,0,0,0,0,0,0,0,0,0,0,0,0,0],"split_type":[0,0,0,0,0,0,0,0,0,0,0,0,0,0,0,0,0,0,0,0,0,0,0,0,0,0,0,0,0,0,0],"sum_hessian":[3.7595758E2,1.8234006E2,1.9361751E2,1.4238008E2,3.9959976E1,5.1890877E1,1.4172664E2,1.3471176E2,7.668321E0,1.8537163E1,2.1422813E1,1.0996441E1,4.0894436E1,1.6997808E1,1.2472883E2,7.8848734E0,1.2682689E2,3.2455337E0,4.4227877E0,3.9663937E0,1.457077E1,1.4461196E1,6.961618E0,9.602445E0,1.3939966E0,3.5996387E1,4.8980503E0,1.042582E1,6.5719876E0,1.8069209E0,1.22921906E2],"tree_param":{"num_deleted":"0","num_feature":"75","num_nodes":"31","size_leaf_vector":"1"}},{"base_weights":[1.1281101E-2,5.611215E-1,-7.290608E-1,-1.6431263E-1,7.500164E-1,5.161584E-2,-8.774535E-1,5.629251E-1,-5.8486295E-1,9.964467E-1,3.5551545E-1,1.1457322E0,-4.3081328E-1,7.963323E-2,-9.040611E-1,8.339536E-2,-6.503792E-2,-8.968287E-2,-7.2918436E-3,1.0143111E-1,-2.5975425E-2,-1.7305775E-2,1.1868306E-1,-1.2306544E-2,1.354235E-1,4.509872E-2,-6.439418E-2,-2.9602258E-2,-9.747649E-2],"categories":[],"categories_nodes":[],"categories_segments":[],"categories_sizes":[],"default_left":[0,0,0,0,0,0,0,0,0,0,0,0,0,0,0,0,0,0,0,0,0,0,0,0,0,0,0,0,0],"id":20,"left_children":[1,3,5,7,9,11,13,15,17,19,21,23,25,-1,27,-1,-1,-1,-1,-1,-1,-1,-1,-1,-1,-1,-1,-1,-1],"loss_changes":[1.4575818E2,2.8277153E1,1.7724068E1,1.3561848E1,1.5510635E1,1.3857697E1,6.4332047E0,5.9230022E0,4.3911333E0,2.5051422E0,2.845927E1,2.2885742E0,3.7292526E0,0E0,5.160385E0,0E0,0E0,0E0,0E0,0E0,0E0,0E0,0E0,0E0,0E0,0E0,0E0,0E0,0E0],"parents":[2147483647,0,0,1,1,2,2,3,3,4,4,5,5,6,6,7,7,8,8,9,9,10,10,11,11,12,12,14,14],"right_children":[2,4,6,8,10,12,14,16,18,20,22,24,26,-1,28,-1,-1,-1,-1,-1,-1,-1,-1,-1,-1,-1,-1,-1,-1],"split_conditions":[1.624715E-2,-4.5481947E-1,-8.342343E-1,-1.10054E0,-3.754797E-1,-6.0717344E-1,-1.3274709E0,1.2499552E0,5.7411015E-1,1.3115612E0,7.124354E-1,-4.5481947E-1,-5.4052305E-1,7.963323E-2,2.3055902E-1,8.339536E-2,-6.503792E-2,-8.968287E-2,-7.2918436E-3,1.0143111E-1,-2.5975425E-2,-1.7305775E-2,1.1868306E-1,-1.2306544E-2,1.354235E-1,4.509872E-2,-6.439418E-2,-2.9602258E-2,-9.747649E-2],"split_indices":[15,74,72,11,16,41,26,45,62,42,14,74,57,0,15,0,0,0,0,0,0,0,0,0,0,0,0,0,0],"split_type":[0,0,0,0,0,0,0,0,0,0,0,0,0,0,0,0,0,0,0,0,0,0,0,0,0,0,0,0,0],"sum_hessian":[3.5606177E2,2.044569E2,1.5160487E2,4.2266445E1,1.6219044E2,2.4318777E1,1.27286095E2,1.53624115E1,2.6904034E1,9.8891E1,6.3299442E1,7.02091E0,1.7297867E1,1.5390869E0,1.2574701E2,1.2812915E1,2.5494962E0,1.6249935E1,1.06540985E1,9.769425E1,1.1967485E0,3.917972E1,2.4119724E1,1.0487487E0,5.9721613E0,3.1498022E0,1.4148065E1,1.3639225E1,1.1210778E2],"tree_param":{"num_deleted":"0","num_feature":"75","num_nodes":"29","size_leaf_vector":"1"}},{"base_weights":[1.15039E-2,-4.9637428E-1,7.4250233E-1,1.5244538E-1,-8.8621265E-1,9.353988E-1,-5.843662E-2,6.474397E-1,-3.5813808E-1,-9.977591E-1,9.86666E-2,1.0599723E0,3.1985942E-2,5.794206E-1,-9.396085E-1,1.0721376E-1,-4.431263E-3,1.1387823E-1,-5.690192E-2,-2.2911308E-2,-1.0379564E-1,1.1842989E-1,-8.088553E-2,1.0847433E-1,-3.6674578E-2,-6.8797044E-2,6.121546E-2,-9.778556E-2,8.867832E-2,-1.3578944E-1,6.1407606E-3],"categories":[],"categories_nodes":[],"categories_segments":[],"categories_sizes":[],"default_left":[0,0,0,0,0,0,0,0,0,0,0,0,0,0,0,0,0,0,0,0,0,0,0,0,0,0,0,0,0,0,0],"id":21,"left_children":[1,3,5,7,9,11,13,15,17,19,21,23,25,27,29,-1,-1,-1,-1,-1,-1,-1,-1,-1,-1,-1,-1,-1,-1,-1,-1],"loss_changes":[1.2427674E2,5.0097183E1,2.1255302E1,1.9184988E1,1.3670288E1,1.2418503E1,1.6043358E1,1.1338675E1,1.25041485E1,3.193634E0,1.4237228E1,3.8332596E0,6.4525056E0,8.819691E0,5.0913954E0,0E0,0E0,0E0,0E0,0E0,0E0,0E0,0E0,0E0,0E0,0E0,0E0,0E0,0E0,0E0,0E0],"parents":[2147483647,0,0,1,1,2,2,3,3,4,4,5,5,6,6,7,7,8,8,9,9,10,10,11,11,12,12,13,13,14,14],"right_children":[2,4,6,8,10,12,14,16,18,20,22,24,26,28,30,-1,-1,-1,-1,-1,-1,-1,-1,-1,-1,-1,-1,-1,-1,-1,-1],"split_conditions":[-1.3772638E-1,4.905328E-3,9.838063E-1,-6.335588E-1,1.506851E0,3.278674E-1,-5.872907E-1,-4.6743263E-4,-1.2991554E0,-1.2393225E0,1.5590994E-1,2.2980092E0,-2.4873291E-1,-7.3979783E-1,5.9472096E-1,1.0721376E-1,-4.431263E-3,1.1387823E-1,-5.690192E-2,-2.2911308E-2,-1.0379564E-1,1.1842989E-1,-8.088553E-2,1.0847433E-1,-3.6674578E-2,-6.8797044E-2,6.121546E-2,-9.778556E-2,8.867832E-2,-1.3578944E-1,6.1407606E-3],"split_indices":[73,12,45,15,13,15,15,18,41,33,15,56,34,34,42,0,0,0,0,0,0,0,0,0,0,0,0,0,0,0,0],"split_type":[0,0,0,0,0,0,0,0,0,0,0,0,0,0,0,0,0,0,0,0,0,0,0,0,0,0,0,0,0,0,0],"sum_hessian":[3.3275208E2,1.9652956E2,1.3622252E2,7.3991776E1,1.2253778E2,1.0964739E2,2.6575127E1,3.7433327E1,3.655845E1,1.1005947E2,1.2478307E1,9.62078E1,1.3439593E1,1.5614583E1,1.0960545E1,2.2852972E1,1.4580354E1,3.9709451E0,3.2587505E1,5.802599E0,1.04256874E2,5.5427523E0,6.935555E0,9.480153E1,1.406272E0,5.9143767E0,7.5252166E0,2.2142868E0,1.3400295E1,7.4788904E0,3.4816542E0],"tree_param":{"num_deleted":"0","num_feature":"75","num_nodes":"31","size_leaf_vector":"1"}},{"base_weights":[2.1879862E-3,-5.02847E-1,7.061579E-1,1.5539572E-1,-9.1543335E-1,8.842906E-1,-4.47662E-2,4.2057523E-1,-8.222299E-1,-9.5200205E-1,4.205792E-1,9.8360544E-1,3.5596317E-1,-7.799016E-1,6.062436E-1,-8.795002E-2,7.036965E-2,1.2840511E-2,-1.3673903E-1,-1.0550047E-3,-1.01419106E-1,-5.735972E-2,1.0864615E-1,-1.7936455E-2,1.0169696E-1,-3.1484116E-2,9.4694905E-2,2.040568E-2,-1.2782969E-1,8.9716E-2,-6.710547E-2],"categories":[],"categories_nodes":[],"categories_segments":[],"categories_sizes":[],"default_left":[0,0,0,0,0,0,0,0,0,0,0,0,0,0,0,0,0,0,0,0,0,0,0,0,0,0,0,0,0,0,0],"id":22,"left_children":[1,3,5,7,9,11,13,15,17,19,21,23,25,27,29,-1,-1,-1,-1,-1,-1,-1,-1,-1,-1,-1,-1,-1,-1,-1,-1],"loss_changes":[1.1219412E2,5.004535E1,1.7672478E1,1.8921562E1,5.925873E0,5.242958E0,1.3024278E1,2.160891E1,8.274307E0,6.4524155E0,3.0770683E0,3.641945E0,7.606064E0,6.515773E0,5.979545E0,0E0,0E0,0E0,0E0,0E0,0E0,0E0,0E0,0E0,0E0,0E0,0E0,0E0,0E0,0E0,0E0],"parents":[2147483647,0,0,1,1,2,2,3,3,4,4,5,5,6,6,7,7,8,8,9,9,10,10,11,11,12,12,13,13,14,14],"right_children":[2,4,6,8,10,12,14,16,18,20,22,24,26,28,30,-1,-1,-1,-1,-1,-1,-1,-1,-1,-1,-1,-1,-1,-1,-1,-1],"split_conditions":[-1.552341E-1,-8.377004E-2,9.978644E-1,-2.0073023E-1,1.9803498E0,2.683649E-1,3.753474E-1,-4.9521902E-1,-1.1311964E0,-6.997004E-1,-7.07287E-1,-2.1264913E0,2.4801114E-1,-9.26706E-1,2.683649E-1,-8.795002E-2,7.036965E-2,1.2840511E-2,-1.3673903E-1,-1.0550047E-3,-1.01419106E-1,-5.735972E-2,1.0864615E-1,-1.7936455E-2,1.0169696E-1,-3.1484116E-2,9.4694905E-2,2.040568E-2,-1.2782969E-1,8.9716E-2,-6.710547E-2],"split_indices":[73,11,45,73,14,11,42,73,6,72,65,70,42,0,11,0,0,0,0,0,0,0,0,0,0,0,0,0,0,0,0],"split_type":[0,0,0,0,0,0,0,0,0,0,0,0,0,0,0,0,0,0,0,0,0,0,0,0,0,0,0,0,0,0,0],"sum_hessian":[3.1357037E2,1.8274966E2,1.3082072E2,7.065292E1,1.1209674E2,1.0559426E2,2.5226456E1,5.6025806E1,1.4627117E1,1.0939E2,2.706739E0,8.8160194E1,1.7434069E1,1.1754741E1,1.3471715E1,9.642341E0,4.6383465E1,5.6096435E0,9.017474E0,6.8506517E0,1.02539345E2,1.1413178E0,1.5654212E0,2.336626E0,8.582357E1,8.384463E0,9.049606E0,4.150727E0,7.604014E0,1.1215006E1,2.256709E0],"tree_param":{"num_deleted":"0","num_feature":"75","num_nodes":"31","size_leaf_vector":"1"}},{"base_weights":[5.5414448E-3,4.0400457E-1,-7.5634956E-1,6.376389E-1,-2.8510174E-2,3.316954E-1,-8.56611E-1,8.122555E-1,6.352361E-2,-5.623572E-1,4.7753814E-1,1.4288772E0,-7.285738E-1,-8.9933157E-1,4.2500865E-1,1.0759429E-1,5.8592923E-2,-1.043513E-1,4.1111786E-2,3.2708865E-2,-8.2632266E-2,-3.7223388E-2,9.3983516E-2,3.9483707E-2,1.6058105E-1,-8.291765E-2,-1.4395337E-2,-2.7267227E-2,-9.5563695E-2,-3.8386025E-2,9.225228E-2],"categories":[],"categories_nodes":[],"categories_segments":[],"categories_sizes":[],"default_left":[0,0,0,0,0,0,0,0,0,0,0,0,0,0,0,0,0,0,0,0,0,0,0,0,0,0,0,0,0,0,0],"id":23,"left_children":[1,3,5,7,9,11,13,15,17,19,21,23,25,27,29,-1,-1,-1,-1,-1,-1,-1,-1,-1,-1,-1,-1,-1,-1,-1,-1],"loss_changes":[9.1658714E1,2.0049644E1,1.1594631E1,1.2855648E1,1.930946E1,1.2056197E1,5.5952606E0,5.2562943E0,1.240073E1,8.430913E0,1.4776718E1,2.7912045E-1,2.0280552E-1,3.0018768E0,1.8633889E0,0E0,0E0,0E0,0E0,0E0,0E0,0E0,0E0,0E0,0E0,0E0,0E0,0E0,0E0,0E0,0E0],"parents":[2147483647,0,0,1,1,2,2,3,3,4,4,5,5,6,6,7,7,8,8,9,9,10,10,11,11,12,12,13,13,14,14],"right_children":[2,4,6,8,10,12,14,16,18,20,22,24,26,28,30,-1,-1,-1,-1,-1,-1,-1,-1,-1,-1,-1,-1,-1,-1,-1,-1],"split_conditions":[2.5721735E-1,6.286416E-1,-1.0218958E0,4.4560298E-1,-6.2030625E-1,4.6459985E-1,1.8843662E0,-1.132685E0,-5.4401314E-1,-1.2352737E0,-6.4537066E-1,-7.110303E-1,-9.229338E-1,-1.1203482E0,-5.1134896E-1,1.0759429E-1,5.8592923E-2,-1.043513E-1,4.1111786E-2,3.2708865E-2,-8.2632266E-2,-3.7223388E-2,9.3983516E-2,3.9483707E-2,1.6058105E-1,-8.291765E-2,-1.4395337E-2,-2.7267227E-2,-9.5563695E-2,-3.8386025E-2,9.225228E-2],"split_indices":[15,45,3,72,68,72,32,72,34,15,66,52,45,72,4,0,0,0,0,0,0,0,0,0,0,0,0,0,0,0,0],"split_type":[0,0,0,0,0,0,0,0,0,0,0,0,0,0,0,0,0,0,0,0,0,0,0,0,0,0,0,0,0,0,0],"sum_hessian":[2.9991406E2,1.9723265E2,1.0268142E2,1.2775054E2,6.948211E1,8.468819E0,9.42126E1,9.763896E1,3.0111582E1,3.37582E1,3.572391E1,3.9911077E0,4.4777107E0,9.146215E1,2.7504478E0,4.3363373E1,5.4275585E1,6.7169576E0,2.3394625E1,7.671049E0,2.6087152E1,1.2655675E1,2.3068233E1,1.0552915E0,2.9358163E0,3.4634047E0,1.0143061E0,8.022063E0,8.3440094E1,1.1344608E0,1.6159868E0],"tree_param":{"num_deleted":"0","num_feature":"75","num_nodes":"31","size_leaf_vector":"1"}},{"base_weights":[6.096362E-3,-4.453974E-1,6.302602E-1,1.8643327E-1,-8.651748E-1,7.860796E-1,-1.6756709E-1,4.4995937E-1,-6.7166305E-1,-9.552168E-1,2.746289E-1,9.168653E-1,-8.711706E-2,6.8319374E-1,-8.6402375E-1,7.6942E-2,-5.3412177E-2,-9.558978E-2,4.4663288E-2,-4.140659E-2,-1.0201575E-1,9.4364576E-2,-7.708512E-2,2.7926048E-2,9.828817E-2,-7.10091E-2,6.1141934E-2,1.0222429E-1,-6.995432E-2,3.97912E-2,-1.3131422E-1],"categories":[],"categories_nodes":[],"categories_segments":[],"categories_sizes":[],"default_left":[0,0,0,0,0,0,0,0,0,0,0,0,0,0,0,0,0,0,0,0,0,0,0,0,0,0,0,0,0,0,0],"id":24,"left_children":[1,3,5,7,9,11,13,15,17,19,21,23,25,27,29,-1,-1,-1,-1,-1,-1,-1,-1,-1,-1,-1,-1,-1,-1,-1,-1],"loss_changes":[8.063958E1,4.420287E1,1.5062805E1,1.5477098E1,1.0519722E1,1.1574997E1,1.2706474E1,1.6739204E1,5.56605E0,2.840622E0,6.3887644E0,3.4141083E0,6.537606E0,5.292188E0,7.1454E0,0E0,0E0,0E0,0E0,0E0,0E0,0E0,0E0,0E0,0E0,0E0,0E0,0E0,0E0,0E0,0E0],"parents":[2147483647,0,0,1,1,2,2,3,3,4,4,5,5,6,6,7,7,8,8,9,9,10,10,11,11,12,12,13,13,14,14],"right_children":[2,4,6,8,10,12,14,16,18,20,22,24,26,28,30,-1,-1,-1,-1,-1,-1,-1,-1,-1,-1,-1,-1,-1,-1,-1,-1],"split_conditions":[-1.552341E-1,4.905328E-3,1.2685881E0,4.493732E-1,1.8723505E0,4.4336E-1,-8.456231E-1,-2.0560935E-1,-3.5636943E-2,-8.18889E-1,1.1241547E-1,-1.6292295E0,-2.4873291E-1,1.7995301E0,-9.060567E-1,7.6942E-2,-5.3412177E-2,-9.558978E-2,4.4663288E-2,-4.140659E-2,-1.0201575E-1,9.4364576E-2,-7.708512E-2,2.7926048E-2,9.828817E-2,-7.10091E-2,6.1141934E-2,1.0222429E-1,-6.995432E-2,3.97912E-2,-1.3131422E-1],"split_indices":[73,12,30,33,13,15,15,73,74,33,15,15,34,65,47,0,0,0,0,0,0,0,0,0,0,0,0,0,0,0,0],"split_type":[0,0,0,0,0,0,0,0,0,0,0,0,0,0,0,0,0,0,0,0,0,0,0,0,0,0,0,0,0,0,0],"sum_hessian":[2.841566E2,1.6505162E2,1.1910497E2,6.610664E1,9.8944984E1,9.965635E1,1.9448624E1,5.0938717E1,1.5167929E1,9.18509E1,7.09408E0,8.663093E1,1.3025423E1,8.763078E0,1.0685546E1,3.8619778E1,1.2318939E1,1.2209808E1,2.9581203E0,1.0631829E1,8.121907E1,4.385283E0,2.708797E0,8.618752E0,7.801218E1,6.8763576E0,6.1490655E0,7.2468495E0,1.5162278E0,2.8346748E0,7.850871E0],"tree_param":{"num_deleted":"0","num_feature":"75","num_nodes":"31","size_leaf_vector":"1"}},{"base_weights":[-3.9431653E-3,6.343444E-1,-4.3331027E-1,-2.7486005E-1,8.094968E-1,-7.6819174E-2,-7.8793246E-1,5.791576E-1,-1.1995646E0,9.5055574E-1,-8.201378E-3,-4.818169E-1,5.636258E-1,6.041946E-1,-8.4588104E-1,-7.536199E-2,8.814198E-2,4.4320863E-2,-2.3127754E-1,-7.082262E-2,9.874138E-2,-1.0502098E-1,4.855628E-2,9.794541E-2,-7.0568785E-2,1.6556317E-2,1.6057642E-1,9.16245E-2,-1.3916457E-2,-8.736162E-2,5.7876643E-2],"categories":[],"categories_nodes":[],"categories_segments":[],"categories_sizes":[],"default_left":[0,0,0,0,0,0,0,0,0,0,0,0,0,0,0,0,0,0,0,0,0,0,0,0,0,0,0,0,0,0,0],"id":25,"left_children":[1,3,5,7,9,11,13,15,17,19,21,23,25,27,29,-1,-1,-1,-1,-1,-1,-1,-1,-1,-1,-1,-1,-1,-1,-1,-1],"loss_changes":[7.46354E1,1.7664055E1,2.0521362E1,1.5255075E1,1.0629326E1,2.1617697E1,7.086544E0,4.7972736E0,1.7809315E1,5.501602E0,7.9907537E0,1.736037E1,1.3150888E1,1.0184034E0,3.614029E0,0E0,0E0,0E0,0E0,0E0,0E0,0E0,0E0,0E0,0E0,0E0,0E0,0E0,0E0,0E0,0E0],"parents":[2147483647,0,0,1,1,2,2,3,3,4,4,5,5,6,6,7,7,8,8,9,9,10,10,11,11,12,12,13,13,14,14],"right_children":[2,4,6,8,10,12,14,16,18,20,22,24,26,28,30,-1,-1,-1,-1,-1,-1,-1,-1,-1,-1,-1,-1,-1,-1,-1,-1],"split_conditions":[-5.872907E-1,-7.3979783E-1,3.7156522E-1,-7.808223E-1,-4.021712E-1,-1.2715968E-1,-1.199695E0,-8.4258664E-1,5.208689E-1,-2.4844034E0,-1.2342733E0,-1.129987E0,6.645785E-1,9.420796E-1,2.002511E0,-7.536199E-2,8.814198E-2,4.4320863E-2,-2.3127754E-1,-7.082262E-2,9.874138E-2,-1.0502098E-1,4.855628E-2,9.794541E-2,-7.0568785E-2,1.6556317E-2,1.6057642E-1,9.16245E-2,-1.3916457E-2,-8.736162E-2,5.7876643E-2],"split_indices":[15,34,15,34,6,26,27,21,5,63,63,5,66,63,11,0,0,0,0,0,0,0,0,0,0,0,0,0,0,0,0],"split_type":[0,0,0,0,0,0,0,0,0,0,0,0,0,0,0,0,0,0,0,0,0,0,0,0,0,0,0,0,0,0,0],"sum_hessian":[2.7032968E2,1.0852357E2,1.618061E2,1.7437483E1,9.108608E1,8.129714E1,8.0508965E1,9.259493E0,8.177989E0,7.75463E1,1.3539782E1,4.995489E1,3.1342253E1,2.8406339E0,7.7668335E1,1.4357064E0,7.8237867E0,3.5464027E0,4.631587E0,1.289686E0,7.6256615E1,3.990834E0,9.548947E0,6.1881223E0,4.376677E1,2.3518013E1,7.8242407E0,1.836941E0,1.0036927E0,7.656455E1,1.1037786E0],"tree_param":{"num_deleted":"0","num_feature":"75","num_nodes":"31","size_leaf_vector":"1"}},{"base_weights":[-3.1583827E-2,-4.7159186E-1,5.800922E-1,-4.3923073E-2,-9.710166E-1,8.424278E-1,1.267026E-1,5.723341E-1,-3.6898774E-1,3.4646146E-2,-1.0018948E0,9.85601E-1,2.3690725E-2,-5.9224224E-1,4.1785043E-1,7.039697E-2,-1.0243465E-1,-7.208704E-2,1.6097475E-2,-5.8263387E-3,-1.0161495E-1,7.5563053E-3,1.0092361E-1,-4.4880614E-2,1.0830724E-1,6.3892016E-3,-1.501715E-1,8.531735E-2,-1.2137321E-2],"categories":[],"categories_nodes":[],"categories_segments":[],"categories_sizes":[],"default_left":[0,0,0,0,0,0,0,0,0,0,0,0,0,0,0,0,0,0,0,0,0,0,0,0,0,0,0,0,0],"id":26,"left_children":[1,3,5,7,9,11,13,15,17,-1,19,21,23,25,27,-1,-1,-1,-1,-1,-1,-1,-1,-1,-1,-1,-1,-1,-1],"loss_changes":[6.862262E1,3.1622608E1,1.25839E1,1.6419662E1,3.1273575E0,7.8788414E0,8.6799E0,6.676135E0,1.01076145E1,0E0,8.4249115E-1,1.1573563E0,6.02147E0,7.2719274E0,6.9718604E0,0E0,0E0,0E0,0E0,0E0,0E0,0E0,0E0,0E0,0E0,0E0,0E0,0E0,0E0],"parents":[2147483647,0,0,1,1,2,2,3,3,4,4,5,5,6,6,7,7,8,8,10,10,11,11,12,12,13,13,14,14],"right_children":[2,4,6,8,10,12,14,16,18,-1,20,22,24,26,28,-1,-1,-1,-1,-1,-1,-1,-1,-1,-1,-1,-1,-1,-1],"split_conditions":[-1.552341E-1,3.6931682E-1,4.961508E-1,-7.5462544E-1,-2.2798827E0,5.4747087E-1,4.1343608E-1,1.0707617E0,-4.1249707E-2,3.4646146E-2,-1.9098796E0,-1.3772638E-1,1.9747294E-1,7.596024E-1,-5.872907E-1,7.039697E-2,-1.0243465E-1,-7.208704E-2,1.6097475E-2,-5.8263387E-3,-1.0161495E-1,7.5563053E-3,1.0092361E-1,-4.4880614E-2,1.0830724E-1,6.3892016E-3,-1.501715E-1,8.531735E-2,-1.2137321E-2],"split_indices":[73,6,25,33,33,15,9,22,34,0,67,73,5,51,15,0,0,0,0,0,0,0,0,0,0,0,0,0,0],"split_type":[0,0,0,0,0,0,0,0,0,0,0,0,0,0,0,0,0,0,0,0,0,0,0,0,0,0,0,0,0],"sum_hessian":[2.5295128E2,1.4725366E2,1.0569763E2,7.991154E1,6.734212E1,6.64126E1,3.928503E1,2.7332996E1,5.257854E1,1.3081266E0,6.6034E1,5.63541E1,1.0058496E1,1.1025381E1,2.8259651E1,2.5767725E1,1.5652708E0,3.1381638E1,2.1196903E1,1.0583843E0,6.497561E1,1.5327967E0,5.4821304E1,7.3546057E0,2.7038908E0,6.9448237E0,4.080558E0,1.53141165E1,1.2945535E1],"tree_param":{"num_deleted":"0","num_feature":"75","num_nodes":"29","size_leaf_vector":"1"}},{"base_weights":[-2.8806217E-2,5.8353376E-1,-4.3907854E-1,9.010921E-1,1.846175E-1,-7.0452654E-1,1.6302222E-1,9.4511724E-1,-3.673119E-2,-6.640247E-1,4.454952E-1,1.076876E-1,-8.449981E-1,4.7952262E-1,-6.691145E-1,9.886593E-2,-1.8656677E-2,-1.0718663E-1,1.03459E-1,-2.703366E-2,7.827557E-2,-7.269337E-2,6.185269E-2,6.518556E-2,-8.7312974E-2,1.0393795E-2,1.0480165E-1,-9.188917E-2,7.3979005E-2],"categories":[],"categories_nodes":[],"categories_segments":[],"categories_sizes":[],"default_left":[0,0,0,0,0,0,0,0,0,0,0,0,0,0,0,0,0,0,0,0,0,0,0,0,0,0,0,0,0],"id":27,"left_children":[1,3,5,7,9,11,13,15,-1,17,19,21,23,25,27,-1,-1,-1,-1,-1,-1,-1,-1,-1,-1,-1,-1,-1,-1],"loss_changes":[6.187437E1,1.2353554E1,2.3679354E1,3.4055672E0,1.0272218E1,1.1787079E1,1.2416039E1,2.8065186E0,0E0,8.727173E0,8.677143E0,7.272364E0,4.254158E0,7.119223E0,5.279872E0,0E0,0E0,0E0,0E0,0E0,0E0,0E0,0E0,0E0,0E0,0E0,0E0,0E0,0E0],"parents":[2147483647,0,0,1,1,2,2,3,3,4,4,5,5,6,6,7,7,9,9,10,10,11,11,12,12,13,13,14,14],"right_children":[2,4,6,8,10,12,14,16,-1,18,20,22,24,26,28,-1,-1,-1,-1,-1,-1,-1,-1,-1,-1,-1,-1,-1,-1],"split_conditions":[-5.872907E-1,2.9682368E-1,-1.552341E-1,5.7107743E-2,-7.3979783E-1,-8.18889E-1,8.717155E-1,1.1690891E0,-3.673119E-2,1.5517149E0,-1.13338E0,-7.07287E-1,-1.2666677E0,1.9747294E-1,6.4823025E-1,9.886593E-2,-1.8656677E-2,-1.0718663E-1,1.03459E-1,-2.703366E-2,7.827557E-2,-7.269337E-2,6.185269E-2,6.518556E-2,-8.7312974E-2,1.0393795E-2,1.0480165E-1,-9.188917E-2,7.3979005E-2],"split_indices":[15,50,73,11,34,33,45,33,0,54,68,65,72,5,33,0,0,0,0,0,0,0,0,0,0,0,0,0,0],"split_type":[0,0,0,0,0,0,0,0,0,0,0,0,0,0,0,0,0,0,0,0,0,0,0,0,0,0,0,0,0],"sum_hessian":[2.4426968E2,9.783163E1,1.4643805E2,5.3769455E1,4.4062172E1,1.0151364E2,4.4924404E1,5.22121E1,1.5573547E0,9.996838E0,3.4065334E1,1.5002391E1,8.651125E1,3.2852726E1,1.2071678E1,5.0399345E1,1.8127569E0,8.358837E0,1.6380007E0,1.0973222E1,2.3092113E1,5.53544E0,9.46695E0,1.1868825E0,8.532437E1,2.0495123E1,1.2357604E1,1.0549253E1,1.5224248E0],"tree_param":{"num_deleted":"0","num_feature":"75","num_nodes":"29","size_leaf_vector":"1"}},{"base_weights":[-3.4317136E-2,-4.629213E-1,5.427297E-1,-1.8655676E-2,-9.0134436E-1,7.265509E-1,-7.8295276E-2,4.3804798E-1,-5.250603E-1,1.4568956E-1,-9.761277E-1,9.7104144E-1,2.326263E-1,-4.5101374E-1,9.750243E-1,-3.6148008E-2,7.158694E-2,8.402923E-2,-7.0550695E-2,-3.8323056E-2,1.0451988E-1,-9.9103644E-2,-2.3089368E-3,-4.3671053E-2,1.0238768E-1,-1.5135342E-2,8.40428E-2,-9.666208E-2,5.705046E-3,1.10405676E-1,1.58184E-2],"categories":[],"categories_nodes":[],"categories_segments":[],"categories_sizes":[],"default_left":[0,0,0,0,0,0,0,0,0,0,0,0,0,0,0,0,0,0,0,0,0,0,0,0,0,0,0,0,0,0,0],"id":28,"left_children":[1,3,5,7,9,11,13,15,17,19,21,23,25,27,29,-1,-1,-1,-1,-1,-1,-1,-1,-1,-1,-1,-1,-1,-1,-1,-1],"loss_changes":[5.820097E1,2.6275192E1,1.1509247E1,1.5972374E1,5.46027E0,9.133659E0,9.78942E0,8.329739E0,8.657158E0,2.968633E0,8.7965393E-1,4.2797546E0,6.4232388E0,4.8423557E0,5.1474667E-1,0E0,0E0,0E0,0E0,0E0,0E0,0E0,0E0,0E0,0E0,0E0,0E0,0E0,0E0,0E0,0E0],"parents":[2147483647,0,0,1,1,2,2,3,3,4,4,5,5,6,6,7,7,8,8,9,9,10,10,11,11,12,12,13,13,14,14],"right_children":[2,4,6,8,10,12,14,16,18,20,22,24,26,28,30,-1,-1,-1,-1,-1,-1,-1,-1,-1,-1,-1,-1,-1,-1,-1,-1],"split_conditions":[-1.552341E-1,1.624715E-2,9.670729E-1,-3.351797E-1,-6.997004E-1,-2.148811E-1,1.3584046E-1,-7.07287E-1,-1.1347969E0,6.484804E-1,1.2995553E0,-1.6915559E0,1.9927987E-1,-1.4658972E0,9.804118E-1,-3.6148008E-2,7.158694E-2,8.402923E-2,-7.0550695E-2,-3.8323056E-2,1.0451988E-1,-9.9103644E-2,-2.3089368E-3,-4.3671053E-2,1.0238768E-1,-1.5135342E-2,8.40428E-2,-9.666208E-2,5.705046E-3,1.10405676E-1,1.58184E-2],"split_indices":[73,15,45,33,72,15,31,65,2,22,74,26,2,72,10,0,0,0,0,0,0,0,0,0,0,0,0,0,0,0,0],"split_type":[0,0,0,0,0,0,0,0,0,0,0,0,0,0,0,0,0,0,0,0,0,0,0,0,0,0,0,0,0,0,0],"sum_hessian":[2.3330632E2,1.3398566E2,9.932068E1,6.706722E1,6.691843E1,7.6505424E1,2.2815256E1,3.533508E1,3.1732143E1,4.397753E0,6.252067E1,5.0528202E1,2.5977217E1,1.7274477E1,5.540779E0,9.034378E0,2.6300703E1,3.2773418E0,2.8454802E1,3.13078E0,1.2669729E0,6.1518448E1,1.0022271E0,1.5649853E0,4.896322E1,1.6380066E1,9.597152E0,8.125643E0,9.148834E0,4.481274E0,1.0595051E0],"tree_param":{"num_deleted":"0","num_feature":"75","num_nodes":"31","size_leaf_vector":"1"}},{"base_weights":[-4.497791E-3,-4.0024948E-1,5.3661644E-1,-8.667991E-1,3.5497348E-3,8.3413315E-1,1.1415671E-1,-1.0068066E0,1.9021958E-1,2.1945046E-1,-8.316605E-1,-3.5080034E-2,8.660436E-1,-5.284473E-1,5.575457E-1,-3.313206E-3,-1.0253252E-1,1.3061151E-1,-5.3022373E-2,-8.977518E-2,5.1499378E-2,5.4731734E-2,-9.866678E-2,3.1950094E-2,9.7213306E-2,-9.548197E-2,3.5565868E-2,-1.5611059E-2,9.562562E-2],"categories":[],"categories_nodes":[],"categories_segments":[],"categories_sizes":[],"default_left":[0,0,0,0,0,0,0,0,0,0,0,0,0,0,0,0,0,0,0,0,0,0,0,0,0,0,0,0,0],"id":29,"left_children":[1,3,5,7,9,11,13,15,17,19,21,-1,23,25,27,-1,-1,-1,-1,-1,-1,-1,-1,-1,-1,-1,-1,-1,-1],"loss_changes":[4.734639E1,2.4059315E1,1.1643845E1,8.959515E0,1.2705043E1,2.3700142E0,1.1621331E1,9.1222763E-1,6.939775E0,1.894334E1,3.633646E0,0E0,2.7914467E0,6.6513543E0,6.981004E0,0E0,0E0,0E0,0E0,0E0,0E0,0E0,0E0,0E0,0E0,0E0,0E0,0E0,0E0],"parents":[2147483647,0,0,1,1,2,2,3,3,4,4,5,5,6,6,7,7,8,8,9,9,10,10,12,12,13,13,14,14],"right_children":[2,4,6,8,10,12,14,16,18,20,22,-1,24,26,28,-1,-1,-1,-1,-1,-1,-1,-1,-1,-1,-1,-1,-1,-1],"split_conditions":[-1.4768547E-1,-3.6920863E-1,-2.2844714E-1,1.506851E0,-1.9410817E-1,-2.4229343E0,1.9927987E-1,-1.7740146E0,-7.5462544E-1,-5.229539E-1,-1.3866789E0,-3.5080034E-2,-1.5043584E0,9.2125434E-1,-5.0235426E-1,-3.313206E-3,-1.0253252E-1,1.3061151E-1,-5.3022373E-2,-8.977518E-2,5.1499378E-2,5.4731734E-2,-9.866678E-2,3.1950094E-2,9.7213306E-2,-9.548197E-2,3.5565868E-2,-1.5611059E-2,9.562562E-2],"split_indices":[73,71,16,13,73,12,2,67,33,73,72,0,72,73,34,0,0,0,0,0,0,0,0,0,0,0,0,0,0],"split_type":[0,0,0,0,0,0,0,0,0,0,0,0,0,0,0,0,0,0,0,0,0,0,0,0,0,0,0,0,0],"sum_hessian":[2.1909009E2,1.2669223E2,9.2397865E1,5.824702E1,6.844521E1,5.3644405E1,3.875346E1,5.1476234E1,6.7707863E0,5.497222E1,1.3472993E1,1.1447064E0,5.24997E1,1.5743933E1,2.3009525E1,1.0128208E0,5.0463413E1,2.3374207E0,4.433366E0,1.1073802E1,4.389842E1,1.1056833E0,1.236731E1,9.186266E0,4.331343E1,1.0567585E1,5.176348E0,8.465497E0,1.4544029E1],"tree_param":{"num_deleted":"0","num_feature":"75","num_nodes":"29","size_leaf_vector":"1"}},{"base_weights":[1.1159044E-2,-5.260365E-1,4.4541633E-1,-7.3371613E-1,1.5891607E-1,8.97663E-1,-3.6331166E-2,6.233336E-1,-8.455114E-1,-4.1458023E-1,8.4899896E-1,-4.1182548E-2,9.386982E-1,-4.758323E-1,3.9521205E-1,1.110554E-1,-4.502658E-2,4.93897E-2,-8.9824304E-2,7.329201E-2,-8.711462E-2,1.1748691E-1,-3.641746E-2,2.1421368E-1,8.308467E-2,-7.8741044E-2,9.422058E-3,7.737158E-2,-4.1059516E-2],"categories":[],"categories_nodes":[],"categories_segments":[],"categories_sizes":[],"default_left":[0,0,0,0,0,0,0,0,0,0,0,0,0,0,0,0,0,0,0,0,0,0,0,0,0,0,0,0,0],"id":30,"left_children":[1,3,5,7,9,11,13,15,17,19,21,-1,23,25,27,-1,-1,-1,-1,-1,-1,-1,-1,-1,-1,-1,-1,-1,-1],"loss_changes":[4.938E1,1.3578152E1,2.553175E1,1.1570648E1,9.390806E0,3.6325417E0,1.1118798E1,3.6992037E0,5.2236366E0,7.525342E0,4.6556034E0,0E0,5.8619194E0,5.2262206E0,9.35354E0,0E0,0E0,0E0,0E0,0E0,0E0,0E0,0E0,0E0,0E0,0E0,0E0,0E0,0E0],"parents":[2147483647,0,0,1,1,2,2,3,3,4,4,5,5,6,6,7,7,8,8,9,9,10,10,12,12,13,13,14,14],"right_children":[2,4,6,8,10,12,14,16,18,20,22,-1,24,26,28,-1,-1,-1,-1,-1,-1,-1,-1,-1,-1,-1,-1,-1,-1],"split_conditions":[-3.051329E-1,-1.596541E-1,-3.0406427E-1,-1.7213283E0,1.9927987E-1,-5.229539E-1,-3.256039E-1,8.475665E-1,-1.4760994E0,-7.591347E-1,1.2387776E0,-4.1182548E-2,-4.2027986E-1,1.5427957E-1,2.4320938E-1,1.110554E-1,-4.502658E-2,4.93897E-2,-8.9824304E-2,7.329201E-2,-8.711462E-2,1.1748691E-1,-3.641746E-2,2.1421368E-1,8.308467E-2,-7.8741044E-2,9.422058E-3,7.737158E-2,-4.1059516E-2],"split_indices":[74,73,16,33,2,73,20,38,16,27,14,0,73,73,15,0,0,0,0,0,0,0,0,0,0,0,0,0,0],"split_type":[0,0,0,0,0,0,0,0,0,0,0,0,0,0,0,0,0,0,0,0,0,0,0,0,0,0,0,0,0],"sum_hessian":[2.0967159E2,9.363258E1,1.16039E2,7.179341E1,2.1839167E1,5.940678E1,5.6632225E1,5.116009E0,6.667741E1,1.2145133E1,9.694033E0,1.5305004E0,5.7876278E1,2.8006567E1,2.8625656E1,3.495336E0,1.6206731E0,2.2087164E0,6.446869E1,3.28459E0,8.860543E0,7.666351E0,2.0276818E0,3.2088664E0,5.466741E1,1.7862198E1,1.014437E1,1.9504044E1,9.1216135E0],"tree_param":{"num_deleted":"0","num_feature":"75","num_nodes":"29","size_leaf_vector":"1"}},{"base_weights":[3.7357822E-2,5.625702E-1,-3.1662452E-1,8.1037515E-1,-8.617934E-4,-5.30973E-1,2.737047E-1,-5.956558E-2,8.650675E-1,-1.0395591E0,3.3149552E-1,-6.398591E-1,4.312853E-1,-3.4174213E-1,7.962327E-1,9.048495E-2,-8.15199E-3,3.4001093E-2,-1.3466553E-1,7.679307E-2,-3.411003E-2,5.3317096E-2,-7.0319034E-2,8.831083E-2,-6.583115E-2,8.24739E-2,-8.0050826E-2,1.2845306E-1,-4.70264E-3],"categories":[],"categories_nodes":[],"categories_segments":[],"categories_sizes":[],"default_left":[0,0,0,0,0,0,0,0,0,0,0,0,0,0,0,0,0,0,0,0,0,0,0,0,0,0,0,0,0],"id":31,"left_children":[1,3,5,7,9,11,13,-1,15,17,19,21,23,25,27,-1,-1,-1,-1,-1,-1,-1,-1,-1,-1,-1,-1,-1,-1],"loss_changes":[3.8209213E1,1.1550249E1,1.5689048E1,4.9333916E0,9.412547E0,9.75387E0,1.1007288E1,0E0,2.1716423E0,3.2579432E0,6.325984E0,6.4418106E0,5.4024076E0,9.237314E0,7.617899E0,0E0,0E0,0E0,0E0,0E0,0E0,0E0,0E0,0E0,0E0,0E0,0E0,0E0,0E0],"parents":[2147483647,0,0,1,1,2,2,3,3,4,4,5,5,6,6,8,8,9,9,10,10,11,11,12,12,13,13,14,14],"right_children":[2,4,6,8,10,12,14,-1,16,18,20,22,24,26,28,-1,-1,-1,-1,-1,-1,-1,-1,-1,-1,-1,-1,-1,-1],"split_conditions":[-5.872907E-1,5.890481E-1,1.61475E-1,-2.5755405E0,-4.5952204E-1,1.506851E0,-4.4818756E-1,-5.956558E-2,2.6385643E0,-1.6571587E0,-5.615718E-1,-1.1898617E0,6.3294E-1,-4.0761867E-1,4.2520127E-1,9.048495E-2,-8.15199E-3,3.4001093E-2,-1.3466553E-1,7.679307E-2,-3.411003E-2,5.3317096E-2,-7.0319034E-2,8.831083E-2,-6.583115E-2,8.24739E-2,-8.0050826E-2,1.2845306E-1,-4.70264E-3],"split_indices":[15,18,74,6,74,13,19,0,9,31,72,41,72,27,6,0,0,0,0,0,0,0,0,0,0,0,0,0,0],"split_type":[0,0,0,0,0,0,0,0,0,0,0,0,0,0,0,0,0,0,0,0,0,0,0,0,0,0,0,0,0],"sum_hessian":[2.035607E2,8.172058E1,1.2184012E2,5.6453358E1,2.5267227E1,8.945835E1,3.2381767E1,1.7433833E0,5.4709972E1,5.609219E0,1.9658009E1,8.066554E1,8.79281E0,1.5027718E1,1.7354048E1,5.254574E1,2.1642354E0,1.0017718E0,4.607447E0,1.1836062E1,7.821946E0,3.751987E0,7.691355E1,6.34941E0,2.4434001E0,4.0167646E0,1.1010954E1,1.0658716E1,6.6953325E0],"tree_param":{"num_deleted":"0","num_feature":"75","num_nodes":"29","size_leaf_vector":"1"}},{"base_weights":[1.4777057E-3,4.9602956E-1,-3.2306647E-1,-2.529542E-1,6.6104025E-1,-4.7195372E-1,5.466465E-1,5.0091785E-1,-1.1472124E0,-5.859345E-1,7.371291E-1,-8.4594184E-1,-5.8953505E-2,-4.638385E-1,1.0855339E0,7.864883E-2,-7.2023116E-2,6.872838E-2,-2.0313346E-1,-4.7471342E-4,-7.719933E-2,7.940593E-2,-5.2683856E-2,-1.9564848E-2,-9.681495E-2,2.8994743E-2,-6.374967E-2,3.4136664E-2,-8.6033314E-2,3.0653288E-3,1.18037306E-1],"categories":[],"categories_nodes":[],"categories_segments":[],"categories_sizes":[],"default_left":[0,0,0,0,0,0,0,0,0,0,0,0,0,0,0,0,0,0,0,0,0,0,0,0,0,0,0,0,0,0,0],"id":32,"left_children":[1,3,5,7,9,11,13,15,17,19,21,23,25,27,29,-1,-1,-1,-1,-1,-1,-1,-1,-1,-1,-1,-1,-1,-1,-1,-1],"loss_changes":[3.140502E1,9.748646E0,1.5555969E1,1.0497955E1,6.4858894E0,1.5613501E1,1.0159155E1,3.5943403E0,1.2809257E1,4.533788E-1,4.777519E0,4.0339127E0,1.0129393E1,2.4863431E0,1.1507311E0,0E0,0E0,0E0,0E0,0E0,0E0,0E0,0E0,0E0,0E0,0E0,0E0,0E0,0E0,0E0,0E0],"parents":[2147483647,0,0,1,1,2,2,3,3,4,4,5,5,6,6,7,7,8,8,9,9,10,10,11,11,12,12,13,13,14,14],"right_children":[2,4,6,8,10,12,14,16,18,20,22,24,26,28,30,-1,-1,-1,-1,-1,-1,-1,-1,-1,-1,-1,-1,-1,-1,-1,-1],"split_conditions":[-5.872907E-1,-7.3979783E-1,6.423252E-1,5.4626554E-1,-4.9521902E-1,-4.218586E-1,-1.5090196E0,1.1221901E0,-9.404764E-1,-3.2805523E-1,1.9868538E0,-9.6078604E-1,5.3306013E-1,5.616338E-1,-6.2352574E-1,7.864883E-2,-7.2023116E-2,6.872838E-2,-2.0313346E-1,-4.7471342E-4,-7.719933E-2,7.940593E-2,-5.2683856E-2,-1.9564848E-2,-9.681495E-2,2.8994743E-2,-6.374967E-2,3.4136664E-2,-8.6033314E-2,3.0653288E-3,1.18037306E-1],"split_indices":[15,34,73,5,73,34,72,56,34,9,53,32,72,46,64,0,0,0,0,0,0,0,0,0,0,0,0,0,0,0,0],"split_type":[0,0,0,0,0,0,0,0,0,0,0,0,0,0,0,0,0,0,0,0,0,0,0,0,0,0,0,0,0,0,0],"sum_hessian":[1.936667E2,7.652573E1,1.1714098E2,1.3719581E1,6.2806145E1,1.0040916E2,1.6731823E1,7.682759E0,6.036822E0,3.2266018E0,5.9579544E1,5.2143166E1,4.8265995E1,5.8679357E0,1.0863888E1,6.5151176E0,1.1676414E0,2.0356393E0,4.0011826E0,1.031147E0,2.1954548E0,5.7367435E1,2.2121086E0,8.6603775E0,4.3482788E1,3.0419685E1,1.784631E1,1.9819702E0,3.8859653E0,1.005302E0,9.858585E0],"tree_param":{"num_deleted":"0","num_feature":"75","num_nodes":"31","size_leaf_vector":"1"}},{"base_weights":[1.7944124E-2,-2.2331497E-1,6.380547E-1,-5.6921726E-1,1.4094093E-1,1.11483835E-1,9.3431765E-1,2.5029562E-2,-8.396449E-1,-8.482322E-1,3.448704E-1,6.719248E-1,-5.080998E-1,-3.634184E-2,9.892852E-1,-4.0145185E-2,9.176681E-2,-9.769754E-2,-2.4052672E-2,3.5917722E-3,-9.3490876E-2,1.06208045E-2,8.9331344E-2,8.8505365E-2,-4.5647837E-2,-1.0671141E-1,4.9191266E-2,2.8433173E-3,1.0201138E-1],"categories":[],"categories_nodes":[],"categories_segments":[],"categories_sizes":[],"default_left":[0,0,0,0,0,0,0,0,0,0,0,0,0,0,0,0,0,0,0,0,0,0,0,0,0,0,0,0,0],"id":33,"left_children":[1,3,5,7,9,11,13,15,17,19,21,23,25,-1,27,-1,-1,-1,-1,-1,-1,-1,-1,-1,-1,-1,-1,-1,-1],"loss_changes":[2.8043306E1,1.7089794E1,8.08506E0,1.118054E1,1.3718501E1,7.298707E0,2.7461834E0,9.006101E0,3.6940346E0,9.2754364E-1,7.220943E0,3.0375953E0,6.162834E0,0E0,9.2976E-1,0E0,0E0,0E0,0E0,0E0,0E0,0E0,0E0,0E0,0E0,0E0,0E0,0E0,0E0],"parents":[2147483647,0,0,1,1,2,2,3,3,4,4,5,5,6,6,7,7,8,8,9,9,10,10,11,11,12,12,14,14],"right_children":[2,4,6,8,10,12,14,16,18,20,22,24,26,-1,28,-1,-1,-1,-1,-1,-1,-1,-1,-1,-1,-1,-1,-1,-1],"split_conditions":[7.012695E-2,-4.218586E-1,-1.471312E0,-8.18889E-1,-5.229539E-1,6.426031E-1,-2.102203E0,4.3048155E-1,6.491596E-1,-7.1290797E-1,8.399798E-2,7.7353984E-1,5.6614125E-1,-3.634184E-2,-9.122683E-1,-4.0145185E-2,9.176681E-2,-9.769754E-2,-2.4052672E-2,3.5917722E-3,-9.3490876E-2,1.06208045E-2,8.9331344E-2,8.8505365E-2,-4.5647837E-2,-1.0671141E-1,4.9191266E-2,2.8433173E-3,1.0201138E-1],"split_indices":[73,34,72,33,73,45,63,64,65,16,74,33,38,0,64,0,0,0,0,0,0,0,0,0,0,0,0,0,0],"split_type":[0,0,0,0,0,0,0,0,0,0,0,0,0,0,0,0,0,0,0,0,0,0,0,0,0,0,0,0,0],"sum_hessian":[1.8549368E2,1.3399983E2,5.149385E1,6.844287E1,6.555695E1,1.9036001E1,3.2457848E1,2.1689371E1,4.67535E1,1.0665211E1,5.489174E1,9.9506855E0,9.085316E0,1.090909E0,3.136694E1,1.5049394E1,6.6399775E0,3.7521988E1,9.231517E0,1.0044868E0,9.660724E0,3.907945E1,1.5812291E1,8.55122E0,1.3994656E0,5.784588E0,3.300728E0,1.034872E0,3.0332067E1],"tree_param":{"num_deleted":"0","num_feature":"75","num_nodes":"29","size_leaf_vector":"1"}},{"base_weights":[-1.9728E-2,-4.3668643E-1,3.316797E-1,1.6163337E-1,-6.8084675E-1,-6.9425E-2,6.592476E-1,3.2608503E-1,-1.5056263E-1,-9.790494E-1,-3.6510205E-1,4.3451795E-1,-5.5662924E-1,-2.2744344E-1,9.045991E-1,7.235405E-2,-3.2185737E-2,4.9386922E-2,-1.1258507E-1,4.317548E-2,-5.6523032E-2,8.687516E-2,-5.4431744E-3,-7.4880086E-2,5.2491676E-2,6.409055E-2,-5.208103E-2,1.0431229E-1,1.4638289E-2],"categories":[],"categories_nodes":[],"categories_segments":[],"categories_sizes":[],"default_left":[0,0,0,0,0,0,0,0,0,0,0,0,0,0,0,0,0,0,0,0,0,0,0,0,0,0,0,0,0],"id":34,"left_children":[1,3,5,7,9,11,13,15,-1,17,19,21,23,25,27,-1,-1,-1,-1,-1,-1,-1,-1,-1,-1,-1,-1,-1,-1],"loss_changes":[2.6213E1,1.2059717E1,1.2805424E1,7.212405E0,5.130373E0,1.1182674E1,1.185611E1,6.1909113E0,0E0,6.908806E0,5.0129795E0,4.8172164E0,5.1932364E0,3.4940717E0,4.2740173E0,0E0,0E0,0E0,0E0,0E0,0E0,0E0,0E0,0E0,0E0,0E0,0E0,0E0,0E0],"parents":[2147483647,0,0,1,1,2,2,3,3,4,4,5,5,6,6,7,7,9,9,10,10,11,11,12,12,13,13,14,14],"right_children":[2,4,6,8,10,12,14,16,-1,18,20,22,24,26,28,-1,-1,-1,-1,-1,-1,-1,-1,-1,-1,-1,-1,-1,-1],"split_conditions":[-2.8693366E-1,-4.149353E-1,-5.0235426E-1,1.0707617E0,-4.7419462E-3,-6.9737613E-1,-3.6920863E-1,4.4560298E-1,-1.5056263E-1,-1.104228E0,-1.0892648E0,-1.8425483E-1,1.0673711E0,-9.575628E-1,1.3225694E0,7.235405E-2,-3.2185737E-2,4.9386922E-2,-1.1258507E-1,4.317548E-2,-5.6523032E-2,8.687516E-2,-5.4431744E-3,-7.4880086E-2,5.2491676E-2,6.409055E-2,-5.208103E-2,1.0431229E-1,1.4638289E-2],"split_indices":[74,33,34,22,5,33,71,72,0,15,28,41,55,28,30,0,0,0,0,0,0,0,0,0,0,0,0,0,0],"split_type":[0,0,0,0,0,0,0,0,0,0,0,0,0,0,0,0,0,0,0,0,0,0,0,0,0,0,0,0,0],"sum_hessian":[1.7691245E2,8.0798874E1,9.611356E1,2.351439E1,5.728448E1,4.3561207E1,5.255236E1,2.2135458E1,1.3789324E0,2.8380232E1,2.8904251E1,2.1465925E1,2.2095282E1,1.1405675E1,4.1146687E1,1.3647344E1,8.488115E0,2.3579311E0,2.60223E1,5.569723E0,2.3334528E1,1.0957689E1,1.0508236E1,1.9022905E1,3.0723765E0,2.581103E0,8.824572E0,3.447284E1,6.673846E0],"tree_param":{"num_deleted":"0","num_feature":"75","num_nodes":"29","size_leaf_vector":"1"}},{"base_weights":[-1.1069775E-2,2.4118921E-1,-5.849638E-1,-3.198414E-1,4.3441266E-1,-7.1179575E-1,5.053687E-1,-5.9170043E-1,3.864817E-1,4.25695E-3,6.705946E-1,4.5760173E-1,-8.0223495E-1,8.4472966E-1,-6.187119E-2,2.8243778E-2,-1.0344397E-1,-1.5488741E-1,1.1529779E-1,-2.8133715E-2,5.479447E-2,3.739951E-2,1.18615225E-1,1.07052304E-1,-5.7534844E-2,-9.4780706E-2,-2.5355984E-2,1.5571435E-2,9.731691E-2],"categories":[],"categories_nodes":[],"categories_segments":[],"categories_sizes":[],"default_left":[0,0,0,0,0,0,0,0,0,0,0,0,0,0,0,0,0,0,0,0,0,0,0,0,0,0,0,0,0],"id":35,"left_children":[1,3,5,7,9,11,13,15,17,19,21,23,25,27,-1,-1,-1,-1,-1,-1,-1,-1,-1,-1,-1,-1,-1,-1,-1],"loss_changes":[2.5644987E1,1.3481878E1,7.8388786E0,6.3939996E0,9.341581E0,5.534836E0,2.895555E0,9.417713E0,1.5920562E1,5.372537E0,8.634863E0,3.2398677E0,3.4112968E0,3.0871344E-1,0E0,0E0,0E0,0E0,0E0,0E0,0E0,0E0,0E0,0E0,0E0,0E0,0E0,0E0,0E0],"parents":[2147483647,0,0,1,1,2,2,3,3,4,4,5,5,6,6,7,7,8,8,9,9,10,10,11,11,12,12,13,13],"right_children":[2,4,6,8,10,12,14,16,18,20,22,24,26,28,-1,-1,-1,-1,-1,-1,-1,-1,-1,-1,-1,-1,-1,-1,-1],"split_conditions":[2.5721735E-1,-4.5481947E-1,5.860431E-1,-1.552341E-1,-6.4537066E-1,-1.1260332E0,2.9733974E-1,-7.091513E-1,-1.543606E0,6.8371284E-1,1.03558935E-1,7.509833E-1,4.0590146E-1,-4.7834232E-1,-6.187119E-2,2.8243778E-2,-1.0344397E-1,-1.5488741E-1,1.1529779E-1,-2.8133715E-2,5.479447E-2,3.739951E-2,1.18615225E-1,1.07052304E-1,-5.7534844E-2,-9.4780706E-2,-2.5355984E-2,1.5571435E-2,9.731691E-2],"split_indices":[15,74,73,73,66,41,46,13,63,52,68,72,20,12,0,0,0,0,0,0,0,0,0,0,0,0,0,0,0],"split_type":[0,0,0,0,0,0,0,0,0,0,0,0,0,0,0,0,0,0,0,0,0,0,0,0,0,0,0,0,0],"sum_hessian":[1.7516849E2,1.2208495E2,5.3083534E1,3.1107632E1,9.0977325E1,4.786308E1,5.220454E0,2.2579294E1,8.528338E0,3.260755E1,5.8369774E1,3.1444845E0,4.4718594E1,4.200757E0,1.0196972E0,7.712973E0,1.4866321E1,2.1298578E0,6.3984804E0,2.1694284E1,1.0913266E1,3.814845E1,2.0221323E1,1.9506522E0,1.1938322E0,3.4766937E1,9.951657E0,1.0076358E0,3.1931212E0],"tree_param":{"num_deleted":"0","num_feature":"75","num_nodes":"29","size_leaf_vector":"1"}},{"base_weights":[7.6765683E-3,-3.6151776E-1,3.588443E-1,3.7016854E-1,-5.6524193E-1,6.2371075E-1,-1.9317555E-1,5.550309E-1,-1.239421E-1,-3.0919373E-1,-9.026312E-1,-7.4884124E-2,7.6880985E-1,-6.827336E-1,2.951986E-1,7.823268E-2,-4.5598548E-2,-5.358922E-2,3.4083612E-2,3.398355E-2,-1.0456657E-1,-1.18212186E-1,4.0795304E-2,1.1059914E-1,5.84759E-2,6.778752E-3,-8.661013E-2,7.81542E-2,-2.282759E-2],"categories":[],"categories_nodes":[],"categories_segments":[],"categories_sizes":[],"default_left":[0,0,0,0,0,0,0,0,0,0,0,0,0,0,0,0,0,0,0,0,0,0,0,0,0,0,0,0,0],"id":36,"left_children":[1,3,5,7,9,11,13,15,-1,17,19,21,23,25,27,-1,-1,-1,-1,-1,-1,-1,-1,-1,-1,-1,-1,-1,-1],"loss_changes":[2.173765E1,1.2394342E1,1.2682905E1,6.1651564E0,5.2788906E0,5.9669285E0,7.0446973E0,4.3097477E0,0E0,5.796955E0,5.196043E0,6.329496E0,2.3544254E0,2.0673656E0,4.0039673E0,0E0,0E0,0E0,0E0,0E0,0E0,0E0,0E0,0E0,0E0,0E0,0E0,0E0,0E0],"parents":[2147483647,0,0,1,1,2,2,3,3,4,4,5,5,6,6,7,7,9,9,10,10,11,11,12,12,13,13,14,14],"right_children":[2,4,6,8,10,12,14,16,-1,18,20,22,24,26,28,-1,-1,-1,-1,-1,-1,-1,-1,-1,-1,-1,-1,-1,-1],"split_conditions":[-2.1425745E-1,-8.18889E-1,2.0115513E-1,1.0707617E0,5.3306013E-1,-7.3979783E-1,5.440074E-1,3.7156522E-1,-1.239421E-1,9.766453E-1,-1.2781686E0,-1.6292295E0,-9.073444E-2,-9.7923154E-1,6.785719E-2,7.823268E-2,-4.5598548E-2,-5.358922E-2,3.4083612E-2,3.398355E-2,-1.0456657E-1,-1.18212186E-1,4.0795304E-2,1.1059914E-1,5.84759E-2,6.778752E-3,-8.661013E-2,7.81542E-2,-2.282759E-2],"split_indices":[74,33,12,22,72,34,14,15,0,13,11,15,28,67,15,0,0,0,0,0,0,0,0,0,0,0,0,0,0],"split_type":[0,0,0,0,0,0,0,0,0,0,0,0,0,0,0,0,0,0,0,0,0,0,0,0,0,0,0,0,0],"sum_hessian":[1.6566458E2,8.07451E1,8.491948E1,1.7407639E1,6.3337467E1,5.729751E1,2.7621973E1,1.6202002E1,1.2056375E0,3.7099045E1,2.623842E1,9.937291E0,4.7360218E1,1.3595522E1,1.4026452E1,1.3412754E1,2.7892478E0,2.7636412E1,9.462633E0,2.5667222E0,2.36717E1,2.5777454E0,7.359545E0,1.495446E1,3.2405758E1,2.793223E0,1.0802299E1,7.015544E0,7.0109076E0],"tree_param":{"num_deleted":"0","num_feature":"75","num_nodes":"29","size_leaf_vector":"1"}},{"base_weights":[-1.313557E-2,-2.3645885E-1,5.9494716E-1,1.9906719E-1,-4.7967857E-1,8.5488155E-2,9.1419286E-1,3.9420572E-1,-8.4028083E-1,-7.852888E-1,2.3940428E-1,6.6714764E-1,-5.772408E-1,-1.04087265E-2,9.7897065E-1,-7.67929E-2,5.574743E-2,3.132391E-2,-1.13285065E-1,6.1623465E-2,-8.322727E-2,-1.3576162E-2,8.8904195E-2,9.483574E-2,-1.9894866E-2,-8.40351E-2,2.7925104E-2,1.02509655E-1,2.5203565E-2],"categories":[],"categories_nodes":[],"categories_segments":[],"categories_sizes":[],"default_left":[0,0,0,0,0,0,0,0,0,0,0,0,0,0,0,0,0,0,0,0,0,0,0,0,0,0,0,0,0],"id":37,"left_children":[1,3,5,7,9,11,13,15,17,19,21,23,25,-1,27,-1,-1,-1,-1,-1,-1,-1,-1,-1,-1,-1,-1,-1,-1],"loss_changes":[2.18189E1,1.2539003E1,6.9421053E0,9.01198E0,1.6817163E1,7.2202168E0,1.8454304E0,7.394577E0,2.7459254E0,4.0249557E0,5.8078513E0,2.6015987E0,2.2232177E0,0E0,5.7814217E-1,0E0,0E0,0E0,0E0,0E0,0E0,0E0,0E0,0E0,0E0,0E0,0E0,0E0,0E0],"parents":[2147483647,0,0,1,1,2,2,3,3,4,4,5,5,6,6,7,7,8,8,9,9,10,10,11,11,12,12,14,14],"right_children":[2,4,6,8,10,12,14,16,18,20,22,24,26,-1,28,-1,-1,-1,-1,-1,-1,-1,-1,-1,-1,-1,-1,-1,-1],"split_conditions":[7.012695E-2,-3.225914E-1,-1.471312E0,8.8242257E-1,1.0111316E0,7.579907E-1,-1.8174669E0,-5.229539E-1,-1.4435257E0,-1.2930055E0,4.109099E-1,2.4795344E-1,4.46206E-1,-1.04087265E-2,5.238279E-1,-7.67929E-2,5.574743E-2,3.132391E-2,-1.13285065E-1,6.1623465E-2,-8.322727E-2,-1.3576162E-2,8.8904195E-2,9.483574E-2,-1.9894866E-2,-8.40351E-2,2.7925104E-2,1.02509655E-1,2.5203565E-2],"split_indices":[73,16,72,22,13,49,37,73,16,42,66,11,44,0,11,0,0,0,0,0,0,0,0,0,0,0,0,0,0],"split_type":[0,0,0,0,0,0,0,0,0,0,0,0,0,0,0,0,0,0,0,0,0,0,0,0,0,0,0,0,0],"sum_hessian":[1.5863455E2,1.1647084E2,4.216371E1,4.1800865E1,7.4669975E1,1.6731312E1,2.5432402E1,3.5715893E1,6.084973E0,5.2335373E1,2.2334604E1,8.907111E0,7.8242006E0,1.4848199E0,2.394758E1,3.943421E0,3.177247E1,1.2168057E0,4.8681674E0,1.3045614E0,5.103081E1,1.4659664E1,7.67494E0,6.65224E0,2.2548718E0,5.999904E0,1.8242964E0,2.2133024E1,1.8145571E0],"tree_param":{"num_deleted":"0","num_feature":"75","num_nodes":"29","size_leaf_vector":"1"}},{"base_weights":[-2.5091838E-2,-9.621812E-2,1.05838016E-1,4.0479416E-1,-1.8402359E-1,-3.4733728E-1,5.4311764E-1,-5.4087913E-1,2.4721579E-1,-8.286701E-2,2.7464096E-2,7.094821E-2,-1.2649478E-2,-1.6108012E-2,-9.483917E-2,-4.1524317E-2,6.3176505E-2],"categories":[],"categories_nodes":[],"categories_segments":[],"categories_sizes":[],"default_left":[0,0,0,0,0,0,0,0,0,0,0,0,0,0,0,0,0],"id":38,"left_children":[1,-1,3,5,7,9,11,13,15,-1,-1,-1,-1,-1,-1,-1,-1],"loss_changes":[1.9179277E1,0E0,1.1974823E1,7.2544794E0,1.0969474E1,3.5686688E0,6.523773E0,5.8590355E0,8.559366E0,0E0,0E0,0E0,0E0,0E0,0E0,0E0,0E0],"parents":[2147483647,0,0,2,2,3,3,4,4,5,5,6,6,7,7,8,8],"right_children":[2,-1,4,6,8,10,12,14,16,-1,-1,-1,-1,-1,-1,-1,-1],"split_conditions":[-5.229539E-1,-9.621812E-2,-2.3890111E-1,-8.444401E-1,-1.596541E-1,-3.4181672E-1,4.488714E-1,1.8419191E-1,-2.4873291E-1,-8.286701E-2,2.7464096E-2,7.094821E-2,-1.2649478E-2,-1.6108012E-2,-9.483917E-2,-4.1524317E-2,6.3176505E-2],"split_indices":[73,0,33,66,73,20,70,12,34,0,0,0,0,0,0,0,0],"split_type":[0,0,0,0,0,0,0,0,0,0,0,0,0,0,0,0,0],"sum_hessian":[1.544893E2,1.8160732E1,1.3632857E2,6.691627E1,6.94123E1,1.016006E1,5.6756207E1,3.784275E1,3.1569553E1,5.5402727E0,4.619787E0,4.541368E1,1.1342523E1,2.0309607E1,1.7533142E1,1.1565672E1,2.0003881E1],"tree_param":{"num_deleted":"0","num_feature":"75","num_nodes":"17","size_leaf_vector":"1"}},{"base_weights":[1.779463E-3,-3.373711E-1,4.444897E-1,-3.502415E-2,-8.8407886E-1,6.8155754E-1,5.786728E-2,2.0530806E-1,-7.17432E-1,-9.6234477E-1,3.9530177E-2,9.585216E-1,2.576633E-1,-1.2348634E-1,8.4869933E-1,-1.2142364E-3,1.09496154E-1,7.336771E-2,-9.204527E-2,-1.0110127E-1,-2.239101E-2,9.977168E-2,4.8564794E-3,-3.9580174E-2,7.956729E-2,2.1634497E-2,-6.2347062E-2,1.02336146E-1,1.1801787E-2],"categories":[],"categories_nodes":[],"categories_segments":[],"categories_sizes":[],"default_left":[0,0,0,0,0,0,0,0,0,0,0,0,0,0,0,0,0,0,0,0,0,0,0,0,0,0,0,0,0],"id":39,"left_children":[1,3,5,7,9,11,13,15,17,19,-1,21,23,25,27,-1,-1,-1,-1,-1,-1,-1,-1,-1,-1,-1,-1,-1,-1],"loss_changes":[2.2007961E1,1.3688409E1,5.7880125E0,9.083006E0,3.3357697E0,4.3693256E0,3.7275674E0,7.9587564E0,4.921535E0,7.836399E-1,0E0,7.866268E-1,6.258597E0,3.77449E0,4.967935E-1,0E0,0E0,0E0,0E0,0E0,0E0,0E0,0E0,0E0,0E0,0E0,0E0,0E0,0E0],"parents":[2147483647,0,0,1,1,2,2,3,3,4,4,5,5,6,6,7,7,8,8,9,9,11,11,12,12,13,13,14,14],"right_children":[2,4,6,8,10,12,14,16,18,20,-1,22,24,26,28,-1,-1,-1,-1,-1,-1,-1,-1,-1,-1,-1,-1,-1,-1],"split_conditions":[-1.552341E-1,3.6931682E-1,6.5732133E-1,3.6389658E-1,1.9803498E0,-2.148811E-1,4.2582196E-1,7.124354E-1,-1.2991554E0,1.6404574E0,3.9530177E-2,1.913009E0,7.500596E-2,-1.845849E-1,1.1433406E-1,-1.2142364E-3,1.09496154E-1,7.336771E-2,-9.204527E-2,-1.0110127E-1,-2.239101E-2,9.977168E-2,4.8564794E-3,-3.9580174E-2,7.956729E-2,2.1634497E-2,-6.2347062E-2,1.02336146E-1,1.1801787E-2],"split_indices":[73,6,45,33,14,15,31,14,41,52,0,39,42,33,38,0,0,0,0,0,0,0,0,0,0,0,0,0,0],"split_type":[0,0,0,0,0,0,0,0,0,0,0,0,0,0,0,0,0,0,0,0,0,0,0,0,0,0,0,0,0],"sum_hessian":[1.4457889E2,8.199911E1,6.2579777E1,5.3484512E1,2.8514593E1,3.8319996E1,2.425978E1,4.0071255E1,1.3413259E1,2.7104296E1,1.4102975E0,2.2413944E1,1.5906051E1,2.0420748E1,3.8390338E0,3.299333E1,7.077927E0,1.3254774E0,1.2087781E1,2.5082085E1,2.0222113E0,2.1395899E1,1.0180453E0,7.301721E0,8.604329E0,1.2495234E1,7.925514E0,2.7751133E0,1.0639205E0],"tree_param":{"num_deleted":"0","num_feature":"75","num_nodes":"29","size_leaf_vector":"1"}},{"base_weights":[-3.454443E-2,-3.1897637E-1,3.4373692E-1,1.8775976E-3,-7.4658877E-1,5.543959E-1,-2.3154077E-1,-3.1033236E-1,5.205333E-1,-9.280054E-1,2.0101728E-1,7.104267E-1,-7.819281E-2,-5.370667E-1,6.298204E-1,-7.255148E-2,1.2521381E-2,8.795958E-2,-3.5108227E-2,-9.858136E-2,-2.9433418E-2,9.618216E-2,-6.350889E-2,-5.7442576E-2,7.972755E-2,6.843896E-2,-4.6734355E-2,-9.189149E-2,-1.5714942E-3,9.250029E-2,-2.6724756E-2],"categories":[],"categories_nodes":[],"categories_segments":[],"categories_sizes":[],"default_left":[0,0,0,0,0,0,0,0,0,0,0,0,0,0,0,0,0,0,0,0,0,0,0,0,0,0,0,0,0,0,0],"id":40,"left_children":[1,3,5,7,9,11,13,15,17,19,21,23,25,27,29,-1,-1,-1,-1,-1,-1,-1,-1,-1,-1,-1,-1,-1,-1,-1,-1],"loss_changes":[1.5401052E1,1.1202719E1,7.5787373E0,7.8759904E0,6.203581E0,4.5262547E0,4.8604617E0,5.581885E0,6.028308E0,7.9247284E-1,4.711255E0,4.5233364E0,3.2466292E0,2.6182058E0,1.5604651E0,0E0,0E0,0E0,0E0,0E0,0E0,0E0,0E0,0E0,0E0,0E0,0E0,0E0,0E0,0E0,0E0],"parents":[2147483647,0,0,1,1,2,2,3,3,4,4,5,5,6,6,7,7,8,8,9,9,10,10,11,11,12,12,13,13,14,14],"right_children":[2,4,6,8,10,12,14,16,18,20,22,24,26,28,30,-1,-1,-1,-1,-1,-1,-1,-1,-1,-1,-1,-1,-1,-1,-1,-1],"split_conditions":[-1.552341E-1,2.0115513E-1,9.838063E-1,-1.4018175E-1,1.5362371E0,4.4336E-1,8.951028E-2,-2.1556623E-1,-1.977256E-1,1.1441387E0,-7.5462544E-1,-1.5751452E0,-8.834196E-1,-1.471312E0,1.6424737E0,-7.255148E-2,1.2521381E-2,8.795958E-2,-3.5108227E-2,-9.858136E-2,-2.9433418E-2,9.618216E-2,-6.350889E-2,-5.7442576E-2,7.972755E-2,6.843896E-2,-4.6734355E-2,-9.189149E-2,-1.5714942E-3,9.250029E-2,-2.6724756E-2],"split_indices":[73,12,45,74,13,15,31,8,73,58,33,39,10,72,30,0,0,0,0,0,0,0,0,0,0,0,0,0,0,0,0],"split_type":[0,0,0,0,0,0,0,0,0,0,0,0,0,0,0,0,0,0,0,0,0,0,0,0,0,0,0,0,0,0,0],"sum_hessian":[1.4111967E2,8.064158E1,6.0478096E1,4.664081E1,3.4000774E1,4.4294384E1,1.6183712E1,2.936557E1,1.7275236E1,2.8554731E1,5.446042E0,3.5431904E1,8.862479E0,1.2224247E1,3.959466E0,1.4693397E1,1.46721735E1,1.2228532E1,5.046705E0,2.5658278E1,2.8964539E0,2.7727003E0,2.6733418E0,1.8879064E0,3.3544E1,2.7381353E0,6.1243434E0,6.6159983E0,5.6082487E0,2.9557338E0,1.0037321E0],"tree_param":{"num_deleted":"0","num_feature":"75","num_nodes":"31","size_leaf_vector":"1"}},{"base_weights":[-4.3941033E-3,7.881262E-1,-1.0275993E-1,1.0344026E0,9.41269E-2,-3.3702394E-1,3.1314942E-1,1.8762013E-2,1.10010706E-1,6.9228165E-2,-5.098144E-1,-7.1763444E-1,-1.2202195E-1,-2.4593925E-1,5.2565235E-1,-7.20655E-2,-2.8323943E-3,3.0380487E-2,-8.7790206E-2,2.8714258E-2,-5.0042998E-2,3.904485E-2,-6.156805E-2,7.330962E-2,1.3363455E-2],"categories":[],"categories_nodes":[],"categories_segments":[],"categories_sizes":[],"default_left":[0,0,0,0,0,0,0,0,0,0,0,0,0,0,0,0,0,0,0,0,0,0,0,0,0],"id":41,"left_children":[1,3,5,7,9,11,13,-1,-1,-1,15,17,19,21,23,-1,-1,-1,-1,-1,-1,-1,-1,-1,-1],"loss_changes":[1.1096789E1,2.588996E0,1.2439415E1,4.334631E-1,2.237511E0,6.5784063E0,5.6098413E0,0E0,0E0,0E0,3.0157667E-1,5.046853E0,8.389886E0,3.3900404E0,2.6461391E0,0E0,0E0,0E0,0E0,0E0,0E0,0E0,0E0,0E0,0E0],"parents":[2147483647,0,0,1,1,2,2,3,3,4,4,5,5,6,6,10,10,11,11,12,12,13,13,14,14],"right_children":[2,4,6,8,10,12,14,-1,-1,-1,16,18,20,22,24,-1,-1,-1,-1,-1,-1,-1,-1,-1,-1],"split_conditions":[-1.129987E0,4.6459985E-1,6.8736446E-1,-7.026833E-1,-9.504764E-1,-3.38236E-1,-5.942084E-1,1.8762013E-2,1.10010706E-1,6.9228165E-2,-4.6622235E-1,-1.1435484E0,2.5721735E-1,-3.441001E-1,5.7752246E-1,-7.20655E-2,-2.8323943E-3,3.0380487E-2,-8.7790206E-2,2.8714258E-2,-5.0042998E-2,3.904485E-2,-6.156805E-2,7.330962E-2,1.3363455E-2],"split_indices":[5,72,62,54,11,68,20,0,0,0,12,15,15,2,18,0,0,0,0,0,0,0,0,0,0],"split_type":[0,0,0,0,0,0,0,0,0,0,0,0,0,0,0,0,0,0,0,0,0,0,0,0,0],"sum_hessian":[1.4030627E2,1.4717462E1,1.2558882E2,1.05006485E1,4.216813E0,8.045923E1,4.512959E1,1.0337285E0,9.46692E0,2.0450673E0,2.1717458E0,2.8199984E1,5.2259247E1,1.2385741E1,3.2743847E1,1.1649201E0,1.0068258E0,3.703123E0,2.449686E1,2.5225086E1,2.7034163E1,4.531041E0,7.8546996E0,2.0843857E1,1.189999E1],"tree_param":{"num_deleted":"0","num_feature":"75","num_nodes":"25","size_leaf_vector":"1"}},{"base_weights":[-1.2001134E-2,1.4856194E-1,-5.4056346E-1,-8.9355E-3,5.726958E-1,1.1552242E-1,-7.656362E-1,8.37665E-1,-2.0912598E-1,-4.1943568E-1,7.105417E-1,8.4162265E-1,-4.998172E-1,3.4280263E-2,-8.7558144E-1,3.408036E-3,9.042073E-2,-9.986818E-2,-4.4516786E-3,-6.561657E-2,1.1668826E-2,9.921987E-2,2.024334E-2,7.267035E-3,1.0689612E-1,3.0277863E-2,-7.537438E-2,-9.279346E-2,8.114045E-3],"categories":[],"categories_nodes":[],"categories_segments":[],"categories_sizes":[],"default_left":[0,0,0,0,0,0,0,0,0,0,0,0,0,0,0,0,0,0,0,0,0,0,0,0,0,0,0,0,0],"id":42,"left_children":[1,3,5,7,9,11,13,15,17,19,21,23,25,-1,27,-1,-1,-1,-1,-1,-1,-1,-1,-1,-1,-1,-1,-1,-1],"loss_changes":[1.1682816E1,7.062134E0,4.8239985E0,1.3398406E1,4.2124414E0,4.4687614E0,3.2260513E0,7.7773E-1,8.260624E0,5.995188E-1,3.4487677E0,7.139878E-1,1.3555545E0,0E0,1.1834106E0,0E0,0E0,0E0,0E0,0E0,0E0,0E0,0E0,0E0,0E0,0E0,0E0,0E0,0E0],"parents":[2147483647,0,0,1,1,2,2,3,3,4,4,5,5,6,6,7,7,8,8,9,9,10,10,11,11,12,12,14,14],"right_children":[2,4,6,8,10,12,14,16,18,20,22,24,26,-1,28,-1,-1,-1,-1,-1,-1,-1,-1,-1,-1,-1,-1,-1,-1],"split_conditions":[3.7156522E-1,3.3088714E-2,-8.342343E-1,-8.2165784E-1,-7.3999286E-1,-6.5495694E-1,-1.3275049E0,-8.2679564E-1,-4.2380387E-1,9.544162E-2,8.52904E-1,-8.167158E-1,4.42586E-1,3.4280263E-2,1.7933314E0,3.408036E-3,9.042073E-2,-9.986818E-2,-4.4516786E-3,-6.561657E-2,1.1668826E-2,9.921987E-2,2.024334E-2,7.267035E-3,1.0689612E-1,3.0277863E-2,-7.537438E-2,-9.279346E-2,8.114045E-3],"split_indices":[15,26,72,27,45,18,10,74,8,69,18,52,11,0,20,0,0,0,0,0,0,0,0,0,0,0,0,0,0],"split_type":[0,0,0,0,0,0,0,0,0,0,0,0,0,0,0,0,0,0,0,0,0,0,0,0,0,0,0,0,0],"sum_hessian":[1.3571307E2,1.0464397E2,3.1069103E1,7.702172E1,2.762224E1,8.06025E0,2.3008852E1,1.4120813E1,6.290091E1,3.1204374E0,2.4501802E1,3.5286772E0,4.5315733E0,1.8851665E0,2.1123686E1,1.1955186E0,1.2925295E1,9.977305E0,5.2923603E1,2.0093052E0,1.1111321E0,1.5150678E1,9.351125E0,1.1063166E0,2.4223607E0,1.0428884E0,3.4886851E0,2.005627E1,1.0674156E0],"tree_param":{"num_deleted":"0","num_feature":"75","num_nodes":"29","size_leaf_vector":"1"}},{"base_weights":[-2.4088898E-3,-9.250086E-1,1.03535436E-1,-2.4340427E-2,-9.594563E-2,-1.942866E-1,3.7284315E-1,-4.5943263E-1,3.6800408E-1,9.114835E-2,7.328184E-1,-7.174324E-2,7.5743594E-3,-8.0032036E-2,4.9789846E-2,9.966699E-2,-1.939255E-2,-4.3576267E-2,8.140303E-2],"categories":[],"categories_nodes":[],"categories_segments":[],"categories_sizes":[],"default_left":[0,0,0,0,0,0,0,0,0,0,0,0,0,0,0,0,0,0,0],"id":43,"left_children":[1,3,5,-1,-1,7,9,11,13,15,17,-1,-1,-1,-1,-1,-1,-1,-1],"loss_changes":[1.3024163E1,8.8718414E-2,9.660463E0,0E0,0E0,8.730312E0,6.3336926E0,5.5038147E0,3.2752523E0,9.628769E0,2.9709492E0,0E0,0E0,0E0,0E0,0E0,0E0,0E0,0E0],"parents":[2147483647,0,0,1,1,2,2,5,5,6,6,7,7,8,8,9,9,10,10],"right_children":[2,4,6,-1,-1,8,10,12,14,16,18,-1,-1,-1,-1,-1,-1,-1,-1],"split_conditions":[-5.3662634E-1,-1.208234E0,-5.0235426E-1,-2.4340427E-2,-9.594563E-2,5.3740096E-1,-9.521696E-2,6.3420606E-1,-2.154264E0,-1.0137036E0,-1.4280379E0,-7.174324E-2,7.5743594E-3,-8.0032036E-2,4.9789846E-2,9.966699E-2,-1.939255E-2,-4.3576267E-2,8.140303E-2],"split_indices":[73,28,34,0,0,65,68,53,11,5,25,0,0,0,0,0,0,0,0],"split_type":[0,0,0,0,0,0,0,0,0,0,0,0,0,0,0,0,0,0,0],"sum_hessian":[1.3126761E2,1.2724778E1,1.1854283E2,1.0001941E0,1.1724584E1,5.6423634E1,6.21192E1,3.8467403E1,1.795623E1,3.5551758E1,2.6567442E1,2.5725166E1,1.2742236E1,1.2802057E0,1.6676023E1,7.9147635E0,2.7636995E1,1.4426723E0,2.512477E1],"tree_param":{"num_deleted":"0","num_feature":"75","num_nodes":"19","size_leaf_vector":"1"}},{"base_weights":[-1.5659574E-2,-4.7930378E-1,2.0377117E-1,-7.942159E-1,-3.4646533E-2,-4.849654E-2,6.106933E-1,1.3575092E-1,-1.0402647E0,-5.313651E-1,6.796328E-1,2.513065E-1,-5.526276E-1,-1.138724E-1,8.1944054E-1,-6.809922E-2,7.066377E-2,-2.237872E-3,-1.1229264E-1,4.7859877E-2,-8.097979E-2,-2.8230697E-2,9.154519E-2,-1.0557803E-2,7.154625E-2,1.2690077E-2,-8.295518E-2,6.501319E-2,-4.0741257E-2,9.85812E-2,1.597259E-2],"categories":[],"categories_nodes":[],"categories_segments":[],"categories_sizes":[],"default_left":[0,0,0,0,0,0,0,0,0,0,0,0,0,0,0,0,0,0,0,0,0,0,0,0,0,0,0,0,0,0,0],"id":44,"left_children":[1,3,5,7,9,11,13,15,17,19,21,23,25,27,29,-1,-1,-1,-1,-1,-1,-1,-1,-1,-1,-1,-1,-1,-1,-1,-1],"loss_changes":[1.3338602E1,5.8686247E0,9.169944E0,5.7710476E0,6.925861E0,8.586374E0,5.2583675E0,3.2938764E0,1.6216412E0,3.6143312E0,2.0795727E0,5.9952197E0,4.08632E0,2.1746807E0,2.7657242E0,0E0,0E0,0E0,0E0,0E0,0E0,0E0,0E0,0E0,0E0,0E0,0E0,0E0,0E0,0E0,0E0],"parents":[2147483647,0,0,1,1,2,2,3,3,4,4,5,5,6,6,7,7,8,8,9,9,10,10,11,11,12,12,13,13,14,14],"right_children":[2,4,6,8,10,12,14,16,18,20,22,24,26,28,30,-1,-1,-1,-1,-1,-1,-1,-1,-1,-1,-1,-1,-1,-1,-1,-1],"split_conditions":[-4.5481947E-1,-3.0886787E-1,-4.1249707E-2,-7.616867E-1,2.9527667E-1,-2.2385904E-1,-3.6920863E-1,-4.5798147E-1,-6.552933E-1,-1.0701877E0,-2.4243131E-1,-3.4695756E-1,-4.021873E-1,-5.935238E-1,1.3225694E0,-6.809922E-2,7.066377E-2,-2.237872E-3,-1.1229264E-1,4.7859877E-2,-8.097979E-2,-2.8230697E-2,9.154519E-2,-1.0557803E-2,7.154625E-2,1.2690077E-2,-8.295518E-2,6.501319E-2,-4.0741257E-2,9.85812E-2,1.597259E-2],"split_indices":[74,73,34,13,42,33,71,73,58,32,72,20,7,58,30,0,0,0,0,0,0,0,0,0,0,0,0,0,0,0,0],"split_type":[0,0,0,0,0,0,0,0,0,0,0,0,0,0,0,0,0,0,0,0,0,0,0,0,0,0,0,0,0,0,0],"sum_hessian":[1.2914763E2,4.110689E1,8.804074E1,2.3604057E1,1.7502836E1,5.489185E1,3.3148888E1,5.0322876E0,1.857177E1,1.047469E1,7.0281453E0,3.4736073E1,2.0155779E1,7.515823E0,2.5633066E1,1.9909925E0,3.0412948E0,1.4903594E0,1.708141E1,2.108303E0,8.366387E0,1.3449144E0,5.683231E0,2.0073957E1,1.4662113E1,5.992609E0,1.416317E1,1.7489611E0,5.7668614E0,2.0075888E1,5.5571785E0],"tree_param":{"num_deleted":"0","num_feature":"75","num_nodes":"31","size_leaf_vector":"1"}},{"base_weights":[-1.7199054E-2,-2.0703651E-1,4.9704745E-1,-9.475686E-2,-9.595274E-2,1.8526542E-3,8.483453E-1,5.835087E-1,-2.840303E-1,-4.5579273E-1,5.927882E-1,-5.703444E-2,9.582742E-1,9.140504E-2,-7.7051744E-2,2.1571986E-2,-5.2940466E-2,5.3288538E-2,-8.6446434E-2,-4.073799E-2,8.806297E-2,2.1145778E-2,1.01177625E-1],"categories":[],"categories_nodes":[],"categories_segments":[],"categories_sizes":[],"default_left":[0,0,0,0,0,0,0,0,0,0,0,0,0,0,0,0,0,0,0,0,0,0,0],"id":45,"left_children":[1,3,5,-1,7,9,11,13,15,17,19,-1,21,-1,-1,-1,-1,-1,-1,-1,-1,-1,-1],"loss_changes":[1.2166622E1,7.3916845E0,5.8456945E0,0E0,1.0415809E1,4.3136635E0,3.6127815E0,8.633456E0,7.900095E0,4.0935745E0,2.3625102E0,0E0,5.3004456E-1,0E0,0E0,0E0,0E0,0E0,0E0,0E0,0E0,0E0,0E0],"parents":[2147483647,0,0,1,1,2,2,4,4,5,5,6,6,7,7,8,8,9,9,10,10,12,12],"right_children":[2,4,6,-1,8,10,12,14,16,18,20,-1,22,-1,-1,-1,-1,-1,-1,-1,-1,-1,-1],"split_conditions":[7.012695E-2,-5.3662634E-1,-1.471312E0,-9.475686E-2,-4.1498846E-1,5.6614125E-1,-1.9967539E0,5.334129E-1,-8.619643E-1,2.7711233E-1,-8.60889E-1,-5.703444E-2,-6.93966E-1,9.140504E-2,-7.7051744E-2,2.1571986E-2,-5.2940466E-2,5.3288538E-2,-8.6446434E-2,-4.073799E-2,8.806297E-2,2.1145778E-2,1.01177625E-1],"split_indices":[73,73,72,0,73,38,63,11,11,50,39,0,64,0,0,0,0,0,0,0,0,0,0],"split_type":[0,0,0,0,0,0,0,0,0,0,0,0,0,0,0,0,0,0,0,0,0,0,0],"sum_hessian":[1.2257421E2,8.996167E1,3.261254E1,1.0752263E1,7.920941E1,1.3951528E1,1.8661013E1,1.6716343E1,6.2493065E1,7.991369E0,5.9601593E0,1.040789E0,1.7620224E1,1.3697484E1,3.0188599E0,2.0619171E1,4.1873894E1,2.2482786E0,5.74309E0,1.2391545E0,4.721005E0,1.5089949E0,1.6111229E1],"tree_param":{"num_deleted":"0","num_feature":"75","num_nodes":"23","size_leaf_vector":"1"}},{"base_weights":[-3.3668713E-3,-8.699365E-1,8.9547195E-2,-6.7356075E-3,-9.369419E-2,8.2534605E-1,5.1477742E-3,-1.1906186E-2,9.5930946E-1,-1.4081779E-1,3.8704416E-1,1.3840643E-2,1.0418592E-1,-3.3886798E-2,3.414222E-2,-6.087855E-3,8.195107E-2],"categories":[],"categories_nodes":[],"categories_segments":[],"categories_sizes":[],"default_left":[0,0,0,0,0,0,0,0,0,0,0,0,0,0,0,0,0],"id":46,"left_children":[1,3,5,-1,-1,7,9,-1,11,13,15,-1,-1,-1,-1,-1,-1],"loss_changes":[1.0046163E1,5.866375E-1,6.995885E0,0E0,0E0,1.5809097E0,5.7475433E0,0E0,5.512867E-1,7.242594E0,5.572154E0,0E0,0E0,0E0,0E0,0E0,0E0],"parents":[2147483647,0,0,1,1,2,2,5,5,6,6,8,8,9,9,10,10],"right_children":[2,4,6,-1,-1,8,10,-1,12,14,16,-1,-1,-1,-1,-1,-1],"split_conditions":[-5.229539E-1,-9.8485464E-1,-1.129987E0,-6.7356075E-3,-9.369419E-2,-6.731121E-1,1.5427957E-1,-1.1906186E-2,-1.3605101E0,7.661651E-1,-1.471312E0,1.3840643E-2,1.0418592E-1,-3.3886798E-2,3.414222E-2,-6.087855E-3,8.195107E-2],"split_indices":[73,0,5,0,0,64,73,0,47,14,72,0,0,0,0,0,0],"split_type":[0,0,0,0,0,0,0,0,0,0,0,0,0,0,0,0,0],"sum_hessian":[1.2280396E2,1.1082202E1,1.11721756E2,1.0084436E0,1.0073759E1,1.0592933E1,1.0112882E2,1.3297526E0,9.26318E0,7.362116E1,2.750766E1,1.0909581E0,8.172222E0,5.2398876E1,2.1222286E1,1.393444E1,1.3573221E1],"tree_param":{"num_deleted":"0","num_feature":"75","num_nodes":"17","size_leaf_vector":"1"}},{"base_weights":[-6.070736E-4,1.622442E-1,-4.1292274E-1,-9.310599E-2,5.1755464E-1,-6.41331E-1,4.2900753E-1,5.9917486E-1,-2.6005206E-1,2.1384023E-1,9.103403E-1,-9.6942204E-1,-3.1656379E-1,6.507064E-1,-5.453534E-2,-5.629921E-2,8.255487E-2,-4.9771164E-2,2.2631666E-2,6.676995E-2,-1.4868313E-2,1.0681088E-1,-1.4642765E-2,4.551346E-2,-1.1243736E-1,-8.600571E-2,6.0830517E-3,9.878271E-2,5.3208303E-3],"categories":[],"categories_nodes":[],"categories_segments":[],"categories_sizes":[],"default_left":[0,0,0,0,0,0,0,0,0,0,0,0,0,0,0,0,0,0,0,0,0,0,0,0,0,0,0,0,0],"id":47,"left_children":[1,3,5,7,9,11,13,15,17,19,21,23,25,27,-1,-1,-1,-1,-1,-1,-1,-1,-1,-1,-1,-1,-1,-1,-1],"loss_changes":[8.180441E0,7.972271E0,6.908526E0,6.126923E0,4.1802664E0,2.6269646E0,2.0743883E0,3.1853478E0,5.004871E0,3.7171707E0,2.7714252E0,3.4281387E0,3.1950412E0,1.3454943E0,0E0,0E0,0E0,0E0,0E0,0E0,0E0,0E0,0E0,0E0,0E0,0E0,0E0,0E0,0E0],"parents":[2147483647,0,0,1,1,2,2,3,3,4,4,5,5,6,6,7,7,8,8,9,9,10,10,11,11,12,12,13,13],"right_children":[2,4,6,8,10,12,14,16,18,20,22,24,26,28,-1,-1,-1,-1,-1,-1,-1,-1,-1,-1,-1,-1,-1,-1,-1],"split_conditions":[4.3650216E-1,3.4776446E-1,1.4376688E0,-9.133607E-1,-2.7911544E-1,-9.495895E-2,5.050912E-1,-9.7303677E-1,5.1060714E-2,-6.172711E-1,2.4320938E-1,-1.3134875E0,-5.0235426E-1,1.6518115E-1,-5.453534E-2,-5.629921E-2,8.255487E-2,-4.9771164E-2,2.2631666E-2,6.676995E-2,-1.4868313E-2,1.0681088E-1,-1.4642765E-2,4.551346E-2,-1.1243736E-1,-8.600571E-2,6.0830517E-3,9.878271E-2,5.3208303E-3],"split_indices":[33,66,32,13,20,5,22,66,26,16,15,15,34,11,0,0,0,0,0,0,0,0,0,0,0,0,0,0,0],"split_type":[0,0,0,0,0,0,0,0,0,0,0,0,0,0,0,0,0,0,0,0,0,0,0,0,0,0,0,0,0],"sum_hessian":[1.19832664E2,8.633833E1,3.3494328E1,5.066499E1,3.5673344E1,2.6534119E1,